elements: [Cu, W]
E0: [0, 0]
deltaSplineBins: 0.001
embeddings:
  0: {ndensity: 2, FS_parameters: [1, 1, 1, 0.5], npoti: FinnisSinclairShiftedScaled, rho_core_cutoff: 5, drho_core_cutoff: 5}
  1: {ndensity: 2, FS_parameters: [1, 1, 1, 0.5], npoti: FinnisSinclairShiftedScaled, rho_core_cutoff: 5, drho_core_cutoff: 5}
bonds:
  [0, 0]: {nradmax: 5, lmax: 6, nradbasemax: 28, radbasename: SBessel, radparameters: [2], radcoefficients: [[[4.3361731540389519, 1.0311389391190506, 1.2836098559768034, 0.77189066259671024, 0.83718876332496128, 1.1244131299990363, -1.0835460362978457, 0.99040266963275059, 0.18597589993704128, -0.63180412175508782, 0.94371800670065797, -0.63729436316546961, 0.09459739570162895, 0.45648436970242773, -0.70226159614579997, 0.66219546934749496, -0.25158320369647569, -0.14995995644306515, 0.38606955950784827, -0.4664284422278811, 0.34638524050582681, -0.22606546859839863, 0.11938017798057679, -0.031228066634207251, 0.051365960481864488, -0.054846240709806024, 0.052142868966938094, -0.018196712272997666], [11.058041703480573, 0.3162286785413907, -4.2713074723727633, 2.6999639119642631, 1.0984744628054959, -1.2940698257865106, 0.18848429652519183, 0.22954333164130847, -0.48295096023795486, 0.4664723805118155, -0.32501739463361123, -0.10304378664984964, 0.32026509486677335, -0.43992482699171737, 0.35005717555405486, -0.028727686360273522, -0.18591375078088554, 0.41150542490648612, -0.24162774302879636, 0.10039154886229835, 0.11411378771617613, -0.15752133010832239, 0.098896013625538348, -0.0017962777531280497, -0.14890853585880698, 0.18972306218938112, -0.1698487412799021, 0.15137738187689506], [12.834000468299623, -1.2536765140618422, -5.6766133056110695, 0.22803975479799518, 0.6672194919643224, 1.5648720400338585, -1.0163603712269331, -0.028796784986387658, 0.295224265092147, 0.4962179902528715, -0.011726955895893794, -0.82745829303144902, 0.67858918176677585, -0.55512458541840515, 0.5766870135407971, -0.42555474745832583, -0.10798961587993949, 0.76020796159587622, -1.0787782837110349, 1.079367706168751, -0.7184283058386487, 0.041667781542430664, 0.72968317756774614, -1.107833924380683, 1.1756672788938691, -0.95419397085431068, 0.69609559972615065, -0.30309409668089904], [4.7126715024883854, -2.0686599777365235, 0.27624341248861478, 0.52117181833136261, -0.0047896434796033801, 1.0064597638404924, -1.6127560403995587, 1.886194920889789, -0.78053591173478276, -0.2834870887033048, 1.2995884978166066, -1.4424291157572844, 1.1120101561193736, -0.54538642885286481, -0.11795789112765551, 0.58772425883675428, -0.70228801210285607, 0.62098922122485323, -0.38712579922345319, 0.087909226713458563, -0.023870870930501231, -0.082476680292201177, 0.14233665399263179, -0.10897331983351738, 0.13045287975925846, -0.14018863302473378, 0.14942531468424658, -0.066478970740163276], [2.3451667986403431, 0.13623522028514415, -0.94511818003566184, 0.091883779902620241, 0.1336206994850776, -0.405800445484997, -0.074023054877376315, 0.097705603572371819, -0.13034560620690946, -0.15446776510145568, 0.16912541634715852, 0.43251586914674406, -0.17936203540897994, -0.53549591904075822, -0.013434714701215355, -0.093160910138233882, 0.067844314099778133, 0.2085071055789556, -0.26069224041282202, 0.088773304332937286, -0.036592798642732065, -0.2609247475389942, 0.26265542129355163, -0.084930045521066352, -0.048348837917436695, 0.32607299930220496, -0.27356579497816808, 0.22564401287597891], [1.4947935498815073, 0.059595285147181265, -0.27567657079865449, 0.2267768546246329, 0.24449042629220644, 0.084195065069909675, 0.18076907969021763, -0.19010609271115247, -0.33171803919012949, -0.082594594434798441, -0.33298472813972912, -0.21315992217538773, 0.29331019762719096, -0.045209032125838725, -0.058555415119802993, 0.22556747079461284, -0.04213928560307427, 0.041129589809141477, 0.18438952720836752, -0.15668580027987722, -0.036818593561609318, 0.090280515850430232, -0.049963336041711659, 0.041260615809740366, -0.21665506124175582, -0.079034925785237339, 0.26049818723392215, -0.46237151271404336], [1.4459011602414957, 0.029085966129618973, -0.32892029369900083, 0.19157943657367227, 0.17257246078236319, 0.04144557538623931, 0.15942132419405927, -0.25013248200273347, -0.098900132655314818, 0.28762444642943702, -0.043531051237426392, -0.10142286272509243, 0.13114888188143012, 0.15229612427557027, 0.12779351451911478, 0.026044352311800873, -0.091206829353099789, -0.080556851179713534, 0.018773539414177969, -0.057826647978415885, 0.036704070765071581, 0.18151504820385225, -0.0015122457110803545, -0.010660659589511481, 0.14317033249046079, 0.065396151862611773, 0.040551101013515077, 0.080524269517476071]], [[2.6666718807227912, 4.5902256889664708, -0.32037007217786168, 0.11792551463293897, 2.9405241429332341, 0.034210277787522426, -0.91719063428699432, 0.93420792645749284, -0.2243168615153123, 0.063542285601537143, -0.012251290516709803, -0.21738268440473243, 0.17094242910457677, -0.1015699674663728, -0.047842238021230853, 0.15540372835230287, 0.045080435874689906, -0.13169445133710367, -0.070627544408382786, 0.24419719823827971, -0.30550647454445462, 0.22323291841476067, -0.20126509652772856, 0.23242825776268647, -0.15210804457227789, 0.037948572686014613, 0.023493859206423048, -0.06515085192436354], [-0.62096772256420452, 3.2775475293554108, -2.0421683357078253, 0.87576961856546698, 2.1631298664414813, -2.0714720016776247, 1.2758413520649814, 0.11007712070249311, -0.088959390809641742, 0.37647757349217453, -0.21156829307711547, 0.31076866164841266, -0.62936144527041393, 0.23741467855822643, 0.11615437136702067, -0.15971101656406123, 0.21992414558031728, -0.17522182210080109, 0.22847701616592966, -0.28891831526768136, 0.32446071507572227, -0.13811885391957357, -0.050122658507767787, 0.25372735392365475, -0.41196855400201304, 0.41534584502405042, -0.30140787424368698, 0.19089689560075374], [-0.45375628102021232, 2.7621901494365342, -1.2205236505485, 0.36211543370278559, -0.048373516021271157, -1.2257051919632518, 1.6812814100047964, -0.599524495968634, 1.6829042951962372, 0.49545739040130343, -1.5000657349853725, 1.1661361557240724, -0.3492359999510492, -0.2361684103313838, 0.61300356371457754, 0.043885497128455457, 0.02512031083563946, -0.16386098995229695, -0.025883474765400205, -0.15458254825726239, 0.4900840717617021, -0.45144595850101532, 0.13862266312670082, 0.44976478955072202, -0.58437437944153547, 0.72276199735306024, -0.57991630659404669, 0.2998331865953372], [0.99051478474222565, 2.0174896995679905, -1.3426559460887599, 0.76336448846377358, 0.97905074548179072, -0.95319444774534623, 0.80100277420780575, 0.27867339454562867, -0.11867037898242812, -0.055095589744557999, 0.24478220966349648, -0.032786287743356846, -0.56428291701478606, 0.35933640973830472, -0.10273110631545287, -0.34407541326387026, 0.3381600405485039, -0.22941953404422719, -0.0040711036671720177, 0.02004773960374677, -0.27063260154420676, 0.12937655028729114, -0.026495708758867614, -0.13940800690669092, 0.2822810007810117, -0.30486328726459067, 0.18945813201431436, -0.10360476663879285], [-0.086536287053004021, 1.4890247021136525, -0.028295431534145418, -0.23410413629239168, 0.23612533120094489, -0.14720091068984634, 0.26420571660204462, 0.57150871252104263, -0.49663285420873898, -0.30729674518507766, 0.50802427744819745, -0.42584204843557028, -0.26328973035212355, 0.90834448402489243, -0.061629875398251835, -0.35396745976890009, 0.47266753003883044, 0.0044037658731815735, -0.15933617701933106, 0.18785062033729644, 0.096490310965738096, -0.12299967030608877, -0.1516524039930843, 0.10867576734464382, 0.14116291204690243, -0.15062803214790732, -0.044585515862582074, 0.018580421400099509], [0.00032745212566694261, 1.0021619867400964, -0.0015222758645536127, 0.0040738603429832888, 0.018528772290320201, 0.016408294698686727, -0.00082257499519840943, -0.0072005235129009469, -0.0035450988896537209, -0.010307688851148723, 0.0084352849752714291, 0.03369166562976459, -0.007256683660275683, -0.011521681749143973, 0.015865323175608417, -0.0056554171684455928, -0.0029233095226442484, 0.0044239858936203132, -0.00054204833034076944, -0.0041840761030049909, 0.0021921656773442981, 0.0058538613560984538, 0.0025232687038509649, -0.0003600011945883658, -0.0030505187967116184, -0.0061657887065728698, -0.0015518147482022084, 0.0053661555961845436], [0.031776219574823676, 1.0324874594814766, 0.0073922023649149893, 0.002576669240627633, -0.013024494969993649, -0.056827028711745171, -0.049424273805892864, 0.0011510103189387791, 0.015184870139974228, 0.0004740383212557055, -0.029796271492266255, -0.03934611981764731, -0.021040758701660972, -0.054446796559235219, -0.091019918406016156, -0.044773021544568394, 0.0070652992210119246, 0.034291017222904258, -0.023774517266167573, -0.11641147915799839, -0.11919733611959522, -0.04849830444217005, -0.048315106127697537, 0.010151013868832692, 0.12811957718201211, 0.029869716521067728, -0.021061681614406552, 0.10757155508348512]], [[-0.36574196453153107, -0.20774672583591866, 2.7783751068347184, 0.29042654737621765, 0.86927623209856442, 2.4205432787232586, -0.49165418533808969, 0.43133816717719475, 0.96745440156137952, -0.31357179520038714, 0.41571499133009832, 0.38454316557522761, -0.57120012235149942, 0.45829332920001153, -0.0022724674773236526, -0.30207649512661477, 0.41426817148780992, -0.22160505314630735, -0.02071216333199765, 0.15817012884729964, -0.29268778095691506, 0.15871698460865505, 0.13508630218913845, -0.38165927716850578, 0.59751296197566073, -0.49969408225883444, 0.32135639385249731, -0.053904972290282967], [-0.44410841107375881, -0.39750233413687225, 2.2106808370362807, -0.35534346500391273, 0.46692488682776218, 1.1331553511497376, -1.8809790165312905, 0.4791822902034214, 0.92166188513155523, -1.0780051375119377, 0.53988945742430117, 0.58973614268567121, -0.59697283807456081, 0.11771314506940071, 0.21080010981152561, -0.27308031613072331, -0.033521593426652466, -0.0086089023058234203, -0.12445602921190178, 0.22009641917301995, -0.12324408181837689, -0.023085844885485006, 0.09647516931337001, -0.12624725395978129, 0.016684520851543178, 0.043725499875482646, -0.021617027151508192, -0.040436270409006492], [-4.6937952667212715, -2.7553922317282398, 6.9254203418242826, -0.51915593067969834, -2.2785834691566835, 2.4169726766038457, -1.3358866853468823, 1.4527771992191969, 0.085269416096055803, -1.9040024739491808, 1.3205033085046434, -0.24429649570442383, -0.18129791357121669, 0.080912889529158885, -0.14363905145491293, 0.19229978029093281, -0.17042440077983012, 0.10936093553664269, -0.17565718412299575, 0.25658200928266117, -0.077907856114135254, -0.094889779238528343, 0.04327472682140468, 0.03538358952773208, 0.0015860818966512548, 0.064328898384660618, -0.17180066391627824, 0.14882885835056162], [-1.54623383094325, -0.96874996119111312, 2.8714874445873293, -0.92592684266759262, -0.59905541481695479, 1.2097294343018639, -0.93718688214983015, 0.80118755232476968, 0.072502438869751398, -0.60003168540159668, 0.53906951099078015, -0.57350833114911792, -0.27567251158301936, 0.34956336614143491, -0.03040730899830513, -0.19159818510936, -0.16366343881284778, 0.24495541040166208, -0.10776302642594639, -0.026115591822024841, -0.070544763807043886, 0.0043420340907890974, 0.17551482805418719, -0.071245326526676769, -0.10833869689734908, 0.113739420899413, -0.14138625286983808, 0.034470437621678583], [-0.3562398001041806, 0.01129625313388327, 2.504318964348478, 0.27493614490244311, -1.1536592916712289, 0.13299933937566905, 0.25640972608912233, -0.33328627103725439, -0.11057077628946339, -0.26424042504244871, -0.37382861297317249, 0.087080080808105739, -0.07325526902383879, -0.3170887223916784, 0.19692329509448764, -0.16588512061705091, -0.021929572431779121, 0.25749122496463495, -0.38109836717100692, 0.052404066624417232, 0.073616497517512314, -0.32367634957846281, 0.24130256923616067, 0.047052427397247326, -0.17250542691116713, 0.15258384179162177, -0.15308758309013287, 0.14396796614909732], [-0.21179880869075673, -0.09496817478432909, 1.2349124779335006, -0.019083838352225067, -0.23816094844965774, -0.10073431631878695, -0.21867450671053326, -0.05775006791065844, 0.19485344061971954, -0.090558885593093844, -0.22211521140602217, -0.12157230853342245, -0.097393180362423754, 0.19759970680151009, 0.30348831465696258, -0.12141975112297822, -0.15314700352530344, 0.18671858524937132, 0.073805482968894637, -0.21740844653603153, -0.029134887256438785, 0.26991600830701401, -0.10435246446139614, -0.28994244440534306, 0.25168791806548541, -0.014733262636808558, -0.35979512081565679, 0.36049798490681983], [-0.069199687987018837, 0.064611151800378491, 1.0624492780042918, -0.040749876308950425, -0.0011905405228467875, -0.19886920416367546, -0.32494964376290469, 0.094879716716814347, 0.22981408769241682, -0.23740455119761705, -0.41859672194735387, -0.22010745454964467, -0.079238984734201254, 0.020465631467084276, 0.067446490349477431, -0.0028455596679815352, -0.091486077027879198, 0.049270430524951406, 0.25567952169685276, 0.11537917252726895, 0.050199440552758823, 0.19707354234507096, 0.053359487842479202, 0.071358444279096683, 0.25228502386803964, -0.16441398520233852, -0.22234999531124736, 0.20456908156126813]], [[1.0838688171060682, 0.50497107201048008, 0.12202914057848763, 1.922080960952649, -0.70611739506089999, -1.3385084278262795, 1.4822387703648092, 0.78592106559121344, -1.1046484558990033, 0.76553898191704195, 0.54421844715604306, -0.56276709278267345, 0.5144199051044166, -0.019904527557874929, -0.14834079725658864, 0.19418096722740377, -0.22577481093115132, 0.11623020841636227, 0.26958896539742561, -0.40196474295931228, 0.04830174402924492, 0.33760802971824488, -0.40940540591774099, 0.25983821766903686, -0.08899550623413939, 0.059650516763636342, -0.035718832819388549, 0.11488721328241737], [0.1438617391376398, 0.21324341401044794, 0.66061612058068575, 1.7231274051079228, -0.38168511539970867, 0.129518806531874, 1.0080553784037998, -0.20006955119912659, -0.055892869307423328, 0.59112977525321331, -0.053565919813179819, 0.040713686210277773, -0.12824200080454773, -0.22247892528048435, 0.34676474508013855, -0.10765279832037108, 0.022737632022736907, 0.2316610504512836, -0.33311637656578041, 0.17771808450153229, 0.11907907914795247, -0.18417937817194419, 0.21878174966960945, -0.14343445170016234, 0.03779796433056113, 0.080816289329280339, -0.1426411876377873, 0.20483530401459885], [1.0659510248652313, 0.30344004122905471, -1.1909593338567559, 2.9852360432293965, 0.34943736459825886, -1.9442463285861027, 0.84793058334181715, -0.86125863046027851, -0.19091894989839775, 1.3864878704440389, -0.72186721756342453, -0.030264298289658237, 0.310467634035967, -0.54004074880706521, -0.15630427638887689, -0.030591724558197586, -0.27776652436388277, 0.16049040051537497, 0.17854885435999077, -0.38667923999369891, 0.17803283559743885, 0.02464250918248936, -0.26346320353438757, 0.16971398723740497, -0.076056961119579491, -0.18743838275021182, 0.25221834115784347, -0.26043143024355925], [0.0080858669072712049, -0.075200492321630064, 0.12455683489145207, 1.5169308727474442, -0.13986147277104327, -0.3375670797885108, 0.43426987221081786, 0.12295363118933859, 0.12177099519301755, 0.48641953142556543, -0.34783121109614529, -0.31282265929621877, 0.65316599683778331, 0.11674965832013282, -0.30060466773243755, 0.33227520139420808, -0.016012051299229627, 0.061524129113248623, 0.36095883106162846, -0.4784923031810156, 0.097315451757632773, 0.37935649407502431, -0.22079210914166036, 0.14409865717687509, -0.2190548262573406, 0.10089409469677837, 0.30366020845172881, -0.19251871486547711], [0.075008481306181513, -0.24138876330616285, 0.018612244637289953, 1.8584890086555885, 0.11630072126548202, -0.85114043144275864, -0.24621368341485894, -0.30200943312767164, -0.38643020399875788, 0.45401910615456503, -0.24607133839146333, -0.72393819687491157, 0.55003792698554743, 0.33376954061038672, -0.40989904288738876, -0.0027610491146094558, -0.28315877517486954, -0.23328048179680125, 0.20347310041966271, -0.15928520873558427, 0.2523582847791313, 0.25915383060679564, -0.42288685195472248, 0.19047226383167148, 0.079874760307854745, -0.33434981122375901, 0.28974196539013441, -0.21772586244504311], [0.047973093564662707, -0.022213026983528856, -0.026524345793711095, 1.0598154678830847, 0.037621783883167045, 0.0034597816972115163, -0.0021017180577036373, -0.049323284278878401, -0.025140104633347853, 0.039925704663756077, -0.013164658077116129, -0.066214665233666301, -0.036030405334449067, -0.043810153371055732, -0.046753020700589246, -0.017948803563238625, 0.011338881836581091, 0.06588788802652254, 0.015158239539351652, -0.055774470597649672, -0.019506375808408832, -0.078824527410443226, -0.04323133796844756, 0.11505130328607152, -0.035574338031831368, -0.11636976986391338, 0.074306615026211914, 0.051434947848532267], [0.047790397296362967, -0.038842121390871613, -0.018309874338647846, 1.06820555640935, 0.0084663424139036665, 0.087064434063935686, 0.13671874574458562, -0.057934374632015471, -0.02019988440579841, 0.10811387048688448, -0.021746141562595897, -0.032914136120151559, 0.052520104645360333, 0.00053982226078154005, 0.023606667381740366, 0.09735689126056378, 0.10988543708972058, 0.12253631294222909, 0.082109899447522269, -0.00806846261845264, -0.072820950069800744, -0.015316806705991432, 0.12466363897078758, 0.026580833939285634, -0.13094498091743997, -0.012580296132575941, -0.058359074836886612, -0.13505639597190824]], [[-0.18875851346200831, -0.1802356939421165, 0.096843020094407956, -0.52314387787494032, 0.00080352787583706483, -0.4214437512971338, 0.58160743051594632, 0.65276016103073431, -0.49214099264061051, -0.098673968612848259, 0.6486108653513053, -0.21086462330538119, -0.015834513244323906, 0.1388731609429118, -0.54253545849058238, 0.061242362626207469, 0.099349471419939703, -0.46400928564616511, 0.4527613613197965, 0.17825757286563523, -0.373821027174841, 0.10031901077355491, 0.057432331740114563, -0.10035847476819247, -0.096176954701560777, -0.10312683434514076, -0.021158450168950533, -0.06367743917800027], [-0.091769087253123299, 0.017118298945367122, -0.19290232213055442, -0.020764101772887469, 1.6047980791185597, 0.098055454622497901, -0.59357433343613264, -0.035594042273023541, 0.22872266206506311, 0.007979961766222109, 0.26190841763958755, -0.00026610004077251705, -0.23704770296214639, 0.21141067738236533, 0.049226143446305118, -0.28028501706451608, 0.19921176933299015, 0.098486502354242805, -0.14211161356331523, 0.30107415775763413, 0.18778917918738178, -0.15137952496370755, 0.074011579926792762, -0.0087392746059801168, -0.085025399059317094, 0.18030578227795568, -0.16473735699160896, 0.35380809065471708], [-0.1414701460236269, -0.05043329391169047, -0.029890922015210885, -0.051825187382792813, 1.2014313721556515, 0.15899391297102947, -0.21355691616543174, -0.088100163298476364, 0.20814125059314584, -0.11867057817380738, -0.15627825031633058, 0.45711096576194854, 0.29612773122182312, -0.1963821868062727, -0.063204887479510002, 0.0732022655434105, -0.011112348554564742, 0.15338442958110624, 0.2308167964220619, 0.0030942250950685367, -0.065184835948173175, 0.079937488668139781, -0.029342943529839027, -0.190816499662598, 0.13371038071812777, 0.19503473873758054, -0.14864075086748219, 0.12909076245566536], [-0.0036755137989351178, 0.014440935375696025, -0.019786289165332385, -0.020400070618887607, 1.0762147771993849, 0.058523631141617426, -0.014822633919629692, 0.045534462471891961, -0.00367219272579757, -0.12597771491670984, -0.0020836599916042482, 0.04719901174475126, -0.079565989780703991, 0.0023398311084368191, 0.064844365948841604, -0.033027024139618735, -0.019266092975368854, 0.025977700561727247, 0.07216523992805475, 0.066876532727650512, -0.068996538166862575, 0.022543846569245116, 0.12307409657883758, -0.077700615766342587, -0.055911345684560604, 0.069746698493092035, -0.044890255344965817, 0.025747891916118738], [-0.063187080655734237, -0.0047801943923572454, -0.025163685326574523, 0.052772044621296026, 1.1405808245552671, -0.13008149333440852, -0.12268982146070123, 0.20221785163712813, 0.094375175307301884, -0.083493296655170843, 0.07693991069394128, 0.15475150480175542, -0.07541427762558435, -0.27631706864873101, -0.089685024581512521, 0.035451361424917234, -0.1554782448439036, 0.059617018126893101, 0.35123554938360679, 0.097614227696125808, 0.021309637773350709, 0.094917421984390751, -0.038773028187634825, 0.15385175235480186, 0.058246845063700127, -0.40559462676050628, 0.0096476952685793215, 0.2640790920447369], [0.059505392483239876, -0.00014730821641437226, -0.069025720958155234, 0.041262042180443992, 1.107794416853348, 0.033251695562118044, 0.028441793231595444, 0.029326145279789259, -0.031126970075898625, 0.003497475567269813, 0.10785156785699265, 0.09907945048015146, -0.086507974354979478, -0.19056619848609505, -0.067066964691398681, -0.027535553337441631, -0.033930071992805733, 0.063275911323482217, 0.0014875203678660829, -0.008282117291848072, 0.076803376628177961, -0.14755644238053645, -0.12630350616877684, 0.18875930493285786, -0.048631879662000263, -0.15830682307732089, 0.19074421070912223, 0.071545850627587532], [0.0071502001355424095, -0.0066792092309371819, -0.012332895810814969, 0.0076054506762146326, 1.0379557962434978, 0.031356468853333881, -0.037145748820700417, -0.039576486886468691, 0.018607955654198875, -0.038805720049731138, -0.10459158611230643, -0.071444279104755343, -0.060840612550524101, -0.014123574994186804, 0.06218088863421424, -0.0017995440814212733, -0.086916187550333895, -0.052485456717794012, 0.0016345862836821565, 0.027252611070863998, 0.08105287876957569, 0.11400250848534271, 0.029231686526277258, -0.0438842700413846, -0.020445007472522075, -0.0023990088084210074, 0.010066022674881511, -0.13271440189686234]]], prehc: 10000, lambdahc: 1, rcut: 7, dcut: 0.01, rcut_in: 1.2700000000000002, dcut_in: 0.10000000000000001, inner_cutoff_type: distance}
  [0, 1]: {nradmax: 5, lmax: 5, nradbasemax: 13, radbasename: SBessel, radparameters: [2], radcoefficients: [[[10.494904668824862, 1.6645058372266257, -0.32800908695209852, -0.64706260001156479, 2.6771695097991972, 2.2861944089136714, -3.2371852248633304, 2.1523790544821018, 0.15635254355425166, -1.4146941208312198, 2.3383904379008804, -1.8255103183455585, 1.0455830745651284], [16.136688673712946, 11.152527125394995, -2.7047806800553897, 0.63715655065617216, 1.5465126622022474, -3.4927474435769019, 1.2989833341700758, -0.34774753945816467, -1.4514481931842342, 1.933882226884827, -1.896794142118341, 1.250991640283251, -0.58443413110769571], [8.8213152589988191, 2.9573139626414942, -7.1535196216117241, -1.2415829488947219, 3.9209717130586181, -1.6817786823170036, -0.65267828243645332, 0.75455774093472339, -0.72333393705328219, 0.3271898479485198, 0.10415494990077874, 0.067530472346258974, -0.0031818977228798466], [5.3734149863767131, 0.16703546115167656, -3.5428717920262098, 1.1611543749211046, 0.88081154744759238, -1.470016316101755, 0.65959549796763117, -0.37856100698546513, -0.4110721788675577, 0.63215553374799949, -0.69777462804656831, 0.3705411391918898, -0.08815288485669967], [4.38599344957293, 1.613603497083522, -1.0221930696956345, -0.17724576404737466, -0.5537578637488485, -0.1283505638619914, 0.76205866883493978, -1.5877659396649408, -1.3627835861734039, 1.2587298069061783, -0.11850769329582915, -1.127509414909291, 0.63892214453586538], [1.3396767587145686, -0.40675538943939865, -0.56368669505905988, 0.50921693105261068, 0.13743120223757638, -0.60621273480222626, 0.3030666658796945, 0.54747996337763916, -0.18737270656699281, -0.094904335500724024, 0.01847910948221626, -0.021024470528582549, 0.12629803656759431]], [[2.4405210089014902, 5.1098437805494044, -2.9681813070084631, 1.567605455498728, 0.8629621279437425, 0.20961341709047948, 0.32219838234484166, -1.0690750024668327, 1.6809718704672028, -1.5982649482674078, 1.5360695984362618, -1.0172706567971366, 0.53371273807360464], [5.7914374133075439, 7.0549701822864863, -2.1645286808592532, -6.002470112825387, 0.88437948068054506, 3.5005503517893586, -1.6141827095859937, 0.24389334033128499, 1.1412690492193753, -0.91828650770551179, 1.1931891361665767, -0.92432919692395743, 0.24811758089929464], [9.2582145477684126, 11.48173684399538, 0.94909293450320598, -5.8231021343405782, -3.3103529477999167, 1.2303413018843539, 1.6006141347061178, 1.0943752486106491, -0.42240896544148665, -1.733159093442886, 0.56332098910335782, -0.82182322520190021, -0.18407565752574168], [1.8942598321310489, 3.9878032135335029, -1.0805460024103146, -3.7732886796815244, 0.35524681973622924, 0.97685501582893641, -1.7754315691385383, 0.27977892163857287, 0.30822480160327015, -0.94035645338758245, 0.93277204916049261, -0.68173899829218598, -0.073019048710688914], [1.0688658029366962, 3.2062533913014799, 0.17477516742525415, -1.8671883106310521, 0.041857638077282176, 0.94670102485641316, -0.90492854975861547, -0.83434941407613661, 0.51648397308680816, 0.006036457557179787, -0.45414282431835018, 0.48883398241214016, -0.40046450013259177], [0, 1, 0, 0, 0, 0, 0, 0, 0, 0, 0, 0, 0]], [[-0.25065435811055692, -3.0003422162165365, 4.9617251929915378, 0.32904574639431566, -4.994747474313856, 2.9199664714033364, 0.40304624357587049, -2.4262647330614122, 1.707803147086068, -0.76712693334865223, -0.065560778934327532, 0.21970343673418904, -0.21937576815080084], [0.057861365840686657, 0.97919796586271701, 2.8768096424387739, 0.047562483899174411, -0.56629174994483222, 0.86889236687421001, -0.62804458954859577, -0.66110243563343674, 0.94178465224800301, -0.0088706214269101986, -0.67940752930527859, 0.76185871408219374, -0.09865135003486955], [-0.70626144131872215, -0.015317720157621529, 1.7322661241296529, 1.0080432872336953, 1.5894876060175112, -0.058652362586653982, -2.5239776990233351, -1.0008823732724412, 1.627834779469207, 0.72805079922898397, -0.72385945593827961, -0.030582826214580291, -0.063646305856803531], [-0.19526412867006523, 0.01685790266301879, 1.6846658012681213, 0.67590306068980843, -0.22000544152937354, -0.66096376083574682, -0.46832667514586002, -0.20015767959122127, 0.20387442868310454, 0.23003070157736585, 0.033605382858996162, 0.10333673241867698, 0.22724800499197098], [-0.14866727009148603, -0.18337849384154101, 1.1371870530543253, 0.10850729399494803, -0.23573546368152615, -0.097612360322109515, 0.093102412060865489, 0.087008611013073126, 0.10601358293222524, -0.01390258365760336, -0.012064332009100311, 0.044713109666554417, 0.010255781308738684], [0, 0, 1, 0, 0, 0, 0, 0, 0, 0, 0, 0, 0]], [[1.9789421056410508, -2.4759847790034493, -3.2888991581104072, 2.8727950149483057, -1.5869908926447565, -1.6084965941893379, 1.7709953164016963, -1.0657558549172808, 0.1673814287809065, 0.38749880501754891, -0.93948827991655415, 0.80486521131291555, -0.48836901952378731], [-0.75855521072293119, -1.0542029398364319, -0.36385035233812013, 2.7278768551185184, 0.80595883155636994, -2.6477958276923022, -1.1513556673105521, 1.1645233122457608, -0.24936397307387953, -0.63768610318720798, 0.58574861229068564, 0.15976007253275426, -0.338397021718224], [0.061320811596258643, 0.33990481696206837, 0.65305827902207059, 1.6562143681936241, -0.12496840348086598, -0.32775966831765557, 0.56761070446300765, -0.022112108239722456, -0.64937976722324742, 0.37141432464015506, -0.10397434546737912, -0.4277995733241276, 0.60854795301409292], [-0.033961620704496882, -0.064667709594407707, 0.016176166037415694, 1.1280984148241331, 0.054239870693115755, -0.048616623480073187, -0.0086531878774525027, -0.01270795386594876, -0.034084444398333011, 0.023273644699740095, 0.066687540343861651, 0.075318399124953708, -0.052841079132446914], [0, 0, 0, 1, 0, 0, 0, 0, 0, 0, 0, 0, 0], [0, 0, 0, 1, 0, 0, 0, 0, 0, 0, 0, 0, 0]], [[1.3723999009726031, 0.95777921450225978, 0.20622155287594185, 1.1688901428665615, 2.375443986563198, 0.25399976061109752, -0.33705840425034622, 0.29014789572840144, 0.9116791481174612, 0.27757385046006255, -0.44952008369524848, 0.43455674268634742, -0.011303560356894839], [-0.0057464015587597034, -0.25559470347263441, -0.45350900397108662, 0.078753463698873344, 1.5377883996551032, 0.02756226836051277, -0.5083463150085884, -0.46031768991495675, -0.18592793134124824, -0.067803307499135892, -0.30647101381447911, -0.10380246238273017, -0.092109208870744114], [-0.14082514382329811, -0.071170927754840005, -0.11896827242997587, -0.078743906295706267, 1.466093298863298, 0.43332626592625584, -0.21692043711102091, -0.10115313572586146, 0.12469601855442738, -0.14523723559161222, 0.05177583770515809, 0.1808273334165357, 0.31132988182611621], [-0.11055856125015615, 0.046856868732509958, -0.014840956378224589, -0.051202714507007578, 1.2567469815606851, 0.097303051079825634, -0.23918905066325388, -0.17924573555847501, -0.076832614356543913, -0.073073388587439822, -0.22350184655579008, -0.02758043225494114, 0.0095040215060316381], [0, 0, 0, 0, 1, 0, 0, 0, 0, 0, 0, 0, 0], [0, 0, 0, 0, 1, 0, 0, 0, 0, 0, 0, 0, 0]]], prehc: 10000, lambdahc: 1, rcut: 7, dcut: 0.01, rcut_in: 1.2700000000000002, dcut_in: 0.10000000000000001, inner_cutoff_type: distance}
  [1, 0]: {nradmax: 5, lmax: 5, nradbasemax: 13, radbasename: SBessel, radparameters: [2], radcoefficients: [[[10.494904668824862, 1.6645058372266257, -0.32800908695209852, -0.64706260001156479, 2.6771695097991972, 2.2861944089136714, -3.2371852248633304, 2.1523790544821018, 0.15635254355425166, -1.4146941208312198, 2.3383904379008804, -1.8255103183455585, 1.0455830745651284], [16.136688673712946, 11.152527125394995, -2.7047806800553897, 0.63715655065617216, 1.5465126622022474, -3.4927474435769019, 1.2989833341700758, -0.34774753945816467, -1.4514481931842342, 1.933882226884827, -1.896794142118341, 1.250991640283251, -0.58443413110769571], [8.8213152589988191, 2.9573139626414942, -7.1535196216117241, -1.2415829488947219, 3.9209717130586181, -1.6817786823170036, -0.65267828243645332, 0.75455774093472339, -0.72333393705328219, 0.3271898479485198, 0.10415494990077874, 0.067530472346258974, -0.0031818977228798466], [5.3734149863767131, 0.16703546115167656, -3.5428717920262098, 1.1611543749211046, 0.88081154744759238, -1.470016316101755, 0.65959549796763117, -0.37856100698546513, -0.4110721788675577, 0.63215553374799949, -0.69777462804656831, 0.3705411391918898, -0.08815288485669967], [4.38599344957293, 1.613603497083522, -1.0221930696956345, -0.17724576404737466, -0.5537578637488485, -0.1283505638619914, 0.76205866883493978, -1.5877659396649408, -1.3627835861734039, 1.2587298069061783, -0.11850769329582915, -1.127509414909291, 0.63892214453586538], [1.3396767587145686, -0.40675538943939865, -0.56368669505905988, 0.50921693105261068, 0.13743120223757638, -0.60621273480222626, 0.3030666658796945, 0.54747996337763916, -0.18737270656699281, -0.094904335500724024, 0.01847910948221626, -0.021024470528582549, 0.12629803656759431]], [[2.4405210089014902, 5.1098437805494044, -2.9681813070084631, 1.567605455498728, 0.8629621279437425, 0.20961341709047948, 0.32219838234484166, -1.0690750024668327, 1.6809718704672028, -1.5982649482674078, 1.5360695984362618, -1.0172706567971366, 0.53371273807360464], [5.7914374133075439, 7.0549701822864863, -2.1645286808592532, -6.002470112825387, 0.88437948068054506, 3.5005503517893586, -1.6141827095859937, 0.24389334033128499, 1.1412690492193753, -0.91828650770551179, 1.1931891361665767, -0.92432919692395743, 0.24811758089929464], [9.2582145477684126, 11.48173684399538, 0.94909293450320598, -5.8231021343405782, -3.3103529477999167, 1.2303413018843539, 1.6006141347061178, 1.0943752486106491, -0.42240896544148665, -1.733159093442886, 0.56332098910335782, -0.82182322520190021, -0.18407565752574168], [1.8942598321310489, 3.9878032135335029, -1.0805460024103146, -3.7732886796815244, 0.35524681973622924, 0.97685501582893641, -1.7754315691385383, 0.27977892163857287, 0.30822480160327015, -0.94035645338758245, 0.93277204916049261, -0.68173899829218598, -0.073019048710688914], [1.0688658029366962, 3.2062533913014799, 0.17477516742525415, -1.8671883106310521, 0.041857638077282176, 0.94670102485641316, -0.90492854975861547, -0.83434941407613661, 0.51648397308680816, 0.006036457557179787, -0.45414282431835018, 0.48883398241214016, -0.40046450013259177], [0, 1, 0, 0, 0, 0, 0, 0, 0, 0, 0, 0, 0]], [[-0.25065435811055692, -3.0003422162165365, 4.9617251929915378, 0.32904574639431566, -4.994747474313856, 2.9199664714033364, 0.40304624357587049, -2.4262647330614122, 1.707803147086068, -0.76712693334865223, -0.065560778934327532, 0.21970343673418904, -0.21937576815080084], [0.057861365840686657, 0.97919796586271701, 2.8768096424387739, 0.047562483899174411, -0.56629174994483222, 0.86889236687421001, -0.62804458954859577, -0.66110243563343674, 0.94178465224800301, -0.0088706214269101986, -0.67940752930527859, 0.76185871408219374, -0.09865135003486955], [-0.70626144131872215, -0.015317720157621529, 1.7322661241296529, 1.0080432872336953, 1.5894876060175112, -0.058652362586653982, -2.5239776990233351, -1.0008823732724412, 1.627834779469207, 0.72805079922898397, -0.72385945593827961, -0.030582826214580291, -0.063646305856803531], [-0.19526412867006523, 0.01685790266301879, 1.6846658012681213, 0.67590306068980843, -0.22000544152937354, -0.66096376083574682, -0.46832667514586002, -0.20015767959122127, 0.20387442868310454, 0.23003070157736585, 0.033605382858996162, 0.10333673241867698, 0.22724800499197098], [-0.14866727009148603, -0.18337849384154101, 1.1371870530543253, 0.10850729399494803, -0.23573546368152615, -0.097612360322109515, 0.093102412060865489, 0.087008611013073126, 0.10601358293222524, -0.01390258365760336, -0.012064332009100311, 0.044713109666554417, 0.010255781308738684], [0, 0, 1, 0, 0, 0, 0, 0, 0, 0, 0, 0, 0]], [[1.9789421056410508, -2.4759847790034493, -3.2888991581104072, 2.8727950149483057, -1.5869908926447565, -1.6084965941893379, 1.7709953164016963, -1.0657558549172808, 0.1673814287809065, 0.38749880501754891, -0.93948827991655415, 0.80486521131291555, -0.48836901952378731], [-0.75855521072293119, -1.0542029398364319, -0.36385035233812013, 2.7278768551185184, 0.80595883155636994, -2.6477958276923022, -1.1513556673105521, 1.1645233122457608, -0.24936397307387953, -0.63768610318720798, 0.58574861229068564, 0.15976007253275426, -0.338397021718224], [0.061320811596258643, 0.33990481696206837, 0.65305827902207059, 1.6562143681936241, -0.12496840348086598, -0.32775966831765557, 0.56761070446300765, -0.022112108239722456, -0.64937976722324742, 0.37141432464015506, -0.10397434546737912, -0.4277995733241276, 0.60854795301409292], [-0.033961620704496882, -0.064667709594407707, 0.016176166037415694, 1.1280984148241331, 0.054239870693115755, -0.048616623480073187, -0.0086531878774525027, -0.01270795386594876, -0.034084444398333011, 0.023273644699740095, 0.066687540343861651, 0.075318399124953708, -0.052841079132446914], [0, 0, 0, 1, 0, 0, 0, 0, 0, 0, 0, 0, 0], [0, 0, 0, 1, 0, 0, 0, 0, 0, 0, 0, 0, 0]], [[1.3723999009726031, 0.95777921450225978, 0.20622155287594185, 1.1688901428665615, 2.375443986563198, 0.25399976061109752, -0.33705840425034622, 0.29014789572840144, 0.9116791481174612, 0.27757385046006255, -0.44952008369524848, 0.43455674268634742, -0.011303560356894839], [-0.0057464015587597034, -0.25559470347263441, -0.45350900397108662, 0.078753463698873344, 1.5377883996551032, 0.02756226836051277, -0.5083463150085884, -0.46031768991495675, -0.18592793134124824, -0.067803307499135892, -0.30647101381447911, -0.10380246238273017, -0.092109208870744114], [-0.14082514382329811, -0.071170927754840005, -0.11896827242997587, -0.078743906295706267, 1.466093298863298, 0.43332626592625584, -0.21692043711102091, -0.10115313572586146, 0.12469601855442738, -0.14523723559161222, 0.05177583770515809, 0.1808273334165357, 0.31132988182611621], [-0.11055856125015615, 0.046856868732509958, -0.014840956378224589, -0.051202714507007578, 1.2567469815606851, 0.097303051079825634, -0.23918905066325388, -0.17924573555847501, -0.076832614356543913, -0.073073388587439822, -0.22350184655579008, -0.02758043225494114, 0.0095040215060316381], [0, 0, 0, 0, 1, 0, 0, 0, 0, 0, 0, 0, 0], [0, 0, 0, 0, 1, 0, 0, 0, 0, 0, 0, 0, 0]]], prehc: 10000, lambdahc: 1, rcut: 7, dcut: 0.01, rcut_in: 1.2700000000000002, dcut_in: 0.10000000000000001, inner_cutoff_type: distance}
  [1, 1]: {nradmax: 5, lmax: 6, nradbasemax: 28, radbasename: SBessel, radparameters: [2], radcoefficients: [[[6.3755818897832608, 0.33514454678786815, -1.1849448088425152, 0.78418529431163253, -0.30170393940557116, 1.024093183275941, -0.60624920776609204, -0.76862311379945103, 1.343037711214278, -0.9742136409885539, 0.19381181200213002, 0.49696845633172648, -0.82193674170910125, 0.74367445047790137, -0.27645904698743357, -0.3408947028739383, 0.74481568828079536, -0.7776697647571108, 0.4908339960530137, -0.024864966354963172, -0.41266007560322721, 0.64959710284606675, -0.66842006565810941, 0.53303058651748914, -0.33934123173681674, 0.16521370046728009, -0.056092522634390719, 0.0076603241696470235], [12.320560442502421, 0.25772050385058393, -4.7737023609786293, 4.6270108396982828, 0.23350402253623279, -1.6416842146328947, 1.586227542608375, -1.0542902833109951, 0.13584138445821475, 1.1460840755308386, -1.611280184972151, 0.67908186543117532, 0.183688536237122, -0.65725919907348385, 0.66058574253779201, -0.45724133099485004, 0.054194580639563082, 0.34144040463661413, -0.60251181341752502, 0.54272682917627324, -0.22635264979258252, -0.12345337743771477, 0.5157553963007494, -0.71942163296150474, 0.68866124724832134, -0.49941981130482221, 0.2848602591049485, -0.08789745336850778], [17.956739318728388, 8.1632023243833363, -3.0232279198175944, 0.52815456939047511, -2.9426803659740646, -1.7008792043719325, 2.6652410655328147, -0.29606821596568689, -0.22623186251507568, 0.71509895305961779, -0.96519171813681359, 0.30505700722260454, 0.060506538740480932, -0.43955667543869154, 0.83904642640244975, -0.61597618740720017, 0.24673172901440532, 0.47128820489244411, -0.7895177860132111, 0.74701244692487412, -0.20533009481762138, -0.356469301959708, 0.75211381434189439, -0.77919940003957777, 0.63485620160436784, -0.31094373733159886, 0.16236926811369001, 0.0020408771337307721], [11.820078635256717, 5.7406357519946294, -2.2252377269601076, 0.10784844683340289, -0.43994944794815177, -0.40978520548560715, 0.36649895737104637, -1.2883969786980465, 0.63188707161284952, 0.21288123791316999, -0.57807342738054235, 0.81636382822344356, -0.082426829530797052, -0.47592678711108638, 0.80227547051276871, -0.3287225127716506, -0.068420834446615272, 0.31586152336856554, -0.45981245966094547, 0.34449254236835036, 0.044608623521840994, -0.21655189959941751, 0.22788270909653666, -0.24224709326506541, 0.31518828231262963, -0.28935198553349578, 0.22768128053747669, -0.11717698735203326], [6.934364868367358, 1.5857643235717309, -4.8662243460942252, -0.69023982035480846, 1.8500237526795258, -0.74111813905089907, -0.36626906654526487, 0.23289863205842795, 0.15617782672814562, 0.58148662199219336, -0.41340741622145327, -0.147360395006288, 0.70772594645953235, -0.34064815101668183, -0.37349600999021854, 0.68049406278033642, -0.21953974416194591, -0.19777385352546387, 0.44428103977739608, -0.23940155014129971, 0.031022339752431242, 0.24435371534233155, -0.33257961048849627, 0.19013734553001341, -0.10851746024843603, 0.041578079253076258, -0.074921289210035241, 0.044689447796599252], [1.9594701065460247, -0.071686736834991799, -1.2974070499778787, 0.56504642075002232, 1.7023848982993866, -0.30341464695021036, -0.7108462420770475, 0.74663758791934043, 0.22047997277553594, -0.49379847513053399, 0.2065075549830851, 0.13172892035285746, -0.17501330266887891, -0.024546928581363994, 0.25635990956826959, 0.19032994648744572, 0.23569860427356967, 0.055756812736831418, -0.047243859314850423, 0.10489262210243466, 0.08617590017183227, -0.056408688846495324, 0.084082019229728758, 0.015918207976492946, -0.025381292192136452, 0.19268377078207399, -0.14944275298214815, -0.022246744714242296], [1.1453910248986128, 0.1253975600388266, -0.18738660171130864, -0.29112986349882841, 0.11015293759584084, 0.50428997360763517, 0.70281447032037381, 0.93548636163660659, 0.78598017435338563, -0.038467241999372903, -0.8152180652503761, -0.67154345685358985, 0.026542842943691115, 0.10181118111635824, -0.086331784375092174, 0.008984609043511475, -0.48257552642377399, -0.30605720667959274, 0.2511878750888229, 0.26709983625384232, -0.068222711921760007, -0.21334368563238665, -0.1100214259307099, 0.16048686380999203, -0.1247890661053139, -0.1926105550141716, 0.66325988748873377, 0.07257810002809123]], [[-1.2899735165305701, 6.3196745343971799, 0.40373151662537993, -2.4917009728533279, 2.845293131709735, -0.8549059587801261, -0.068571027659933267, 1.2905456823420995, -1.7337771873400878, 1.0843595337152521, 0.25863637732191386, -0.98990988978139538, 0.95708109093257465, -0.3429074433595376, -0.18987891531788514, 0.56095661147641096, -0.65585225531662283, 0.59828642704659396, -0.33445757953129196, -0.0089583924956736973, 0.41230094622182778, -0.64935164087849473, 0.70597840217626939, -0.54630039676639575, 0.30736128553041708, -0.090766653274511361, -0.0022663513242948924, 0.025444614141345311], [0.59383057020026553, 3.774601370593555, 0.91849457366411325, -1.2689636302469436, 1.9098448851498864, 0.49658453681167231, -2.3147921660215962, 1.7680621515548809, 0.64080906461557885, -1.8482462846243095, 0.21366855864325668, 1.3647963250854978, -0.40562827967714865, -0.16074675542806383, 0.41417883870121691, -0.24587352239236351, -0.075135892297039639, 0.2382672299296659, 0.044822521704900975, -0.071521895009418704, 0.12145649954310637, 0.049067798367825911, -0.25607871212633182, 0.13458245271176761, 0.038009350320769714, -0.12499483073359874, 0.20688035950907904, 0.0072451786146607369], [-0.6612970707376461, 0.97522810358396306, -1.6869135564987383, 0.13982108074450814, 2.9748446587036059, -2.700791076031881, -2.4798431261732734, 3.6984562286188125, 0.067770611274676928, -2.3440525404946517, 1.1102740959923478, 0.3993921279464428, -0.88637755372075022, 0.58777465607723001, -0.0778940376756658, -0.59150493209023358, 0.55148943819821772, -0.053886285873638085, -0.2941925477027626, 0.18728023201786373, -0.14825640001465296, 0.052341909495303492, 0.027308407653301666, -0.30006960864840704, 0.096604594788308046, -0.14880679675481917, -0.028061200639753866, 0.10288798483912834], [0.10754590913664275, 3.1087271433837205, -0.063482086305910956, -2.4135532628329428, 1.6218248898193679, 1.617334763423643, -2.3792131597760342, -0.078136029040766858, 1.7419993502908215, -0.84359639494188587, -0.25773919415749702, 0.55996198178586465, -0.25329492186191332, -0.033729645646977467, 0.36015474285178156, -0.026745594569236628, -0.19071261727806854, 0.14826395665427008, 0.016731047943158661, -0.13128596154011063, 0.20090577851441879, -0.06252746967304669, -0.099179681417014345, 0.15194037667253676, -0.10872435809160406, 0.079449022575550324, -0.043394910184953159, 0.036548066553470746], [0.82761113078239212, 2.7552716392478809, -0.06895806144465734, -1.3012918263981581, 1.0328394057576733, 0.16665793974746965, -2.4097080576276269, 1.0158822783870036, 2.5840326451842142, -1.575127753277811, -0.71481353957632487, 1.9691068108340575, -0.73591175676033649, -0.68597672487011685, 0.90541683613978419, -0.15817390609663939, -0.16475294445986982, 0.63672842649222683, -0.33650467719123739, -0.0034106482887293166, 0.24900241778481275, -0.21438759447148834, 0.24351801146473354, -0.16579475467868723, 0.031747938608705506, 0.2138696793119654, -0.28288565317154257, 0.17597355719673324], [-0.22414094768881249, 1.3045722036798164, 0.17777597188229263, -0.632976028859221, -0.29994746363978364, 0.10104915571560334, -0.31166304545957918, -0.3683027819444456, -0.085624137589892318, 0.17980839169319446, 0.39428667020921854, 0.36538480493457742, 0.30849555552501984, -0.032557888323830601, -0.55710673069468708, -0.14700512256847373, 0.53336058285384669, 0.42217382165069411, 0.17765034063993559, -0.090598727476864122, -0.50283719983213393, -0.1394015553360721, 0.43372433351002793, 0.1263366946124784, -0.21593498274610126, 0.014840603791540591, 0.030920542671434782, -0.18446362229806856], [0.3880047587335867, 1.1828736592114983, -0.35605380367564143, -0.15887045183351522, 0.21394453497323368, -0.17234268228949001, -0.464871773358775, 0.098360275318937276, 0.35076831975893169, -0.36013590100286441, -0.5598003151610611, 0.12332501012072383, 0.027231505836693502, -0.68772489995137365, -0.56891874941513887, -0.18984191892566932, -0.085644491875755402, 0.27031443175479902, 0.39919716176528303, -0.1655180600441537, -0.21228515027565206, 0.28659521212155092, 0.19413721811530588, 0.27957029964730562, 0.50755374417490806, -0.16263167516587776, -0.19840502413102598, 0.29394655091032101]], [[2.4090719977325383, 0.85014757343496361, 2.3661175865597515, -0.59885370178586639, -0.8790165674634044, 2.9381067367134652, 0.69367282248728668, -1.378146579763651, 0.1678756038213621, 0.82136633360728228, -0.14642769014618387, -0.28495325765764612, -0.16511706681063087, 0.7638637560008501, -0.53484860210465679, -0.099632014257227522, 0.63763174354897389, -0.67829610320565836, 0.30567057643580214, 0.18729347836864291, -0.38954250314798378, 0.35176769119899159, -0.23727207994134455, 0.25713879706824283, -0.34748736245541534, 0.36840272239886568, -0.2661523135560428, 0.13538852668132248], [-0.73602738711334059, 0.95446594792163653, 2.3084997234535272, -1.1822802716599576, 0.94140698851000959, 3.4730452795419353, -0.57606136324883517, -2.0129912461759805, 1.3933108350116084, 1.3936504470001247, -1.1580504227857062, -0.57131739817414573, 0.44101464733972984, 0.04884829019791901, -0.091648659162894053, 0.024818412171018944, 0.2071577753788485, -0.13704326034010766, -0.19833615656951556, 0.2248123542745139, 0.084964826376516561, -0.10479225595406239, 0.25862928070558661, -0.035314239742779495, -0.14340514482381386, 0.37017715746781948, -0.2303025023189596, 0.13758673226278495], [-0.94983778311613398, 1.6215769827345363, 3.8024100255074855, -1.4350867017533016, -3.4579029352556656, -0.9340729969794328, 1.1075695745777516, 1.2347989708523888, -0.060430943151747539, -0.57356258925833137, 0.26024298599408896, -0.13588510635989337, -0.028685980337687954, 0.19843687905429375, -0.023387720789233703, -0.13375756496178426, 0.16881087975455583, 0.16256775595655515, -0.10897480577837863, 0.012554207887937902, 0.16840169501810057, -0.13366655466038005, 0.054636067480839705, 0.055309270078760554, -0.26255788117236639, 0.31476936136124106, -0.2301113500343803, 0.14027564870691486], [-0.63662588728179037, 0.33764929303934593, 4.3565764141277832, -0.5914201664305937, -3.9925695618561727, 1.8315732103579703, 1.4778220198915044, -2.1517298375733298, 0.77577207420341565, 0.50111960340924955, -0.72314738836755066, 0.71402937344978445, 0.13079325265540168, -0.49745914278656245, 0.69754277388896035, -0.26132372576895263, -0.10564414605362045, 0.36973761883189377, -0.35028133543180817, 0.14088949196710507, 0.13604656478579985, -0.21981914765557564, 0.15801710650357492, -0.061205449818870425, 0.025415924721791803, -0.0070538790046315051, 0.057524419342049292, -0.067716084455941697], [-0.61801939106926806, -0.51839972642459864, 2.8821240229998901, 1.4567842497765395, -3.0229894907033512, -2.5669573523272318, 1.8042615315802395, 1.6090702515130264, -0.27326096677709194, -0.046945523742687512, -0.14596146061425128, 0.24041897060668457, 0.86416306471411242, -0.72515448153917605, -0.49387354089971264, 0.97407053006331723, -0.11013754317364897, -0.25134304757820425, 0.87022618822938902, -0.27645733239282932, -0.71910354122520392, 0.75233885021187308, -0.029013386586572584, -0.36721091533073147, 0.69945855216764208, -0.250905309504736, 0.031959241003871534, 0.14998285808156919], [-0.61076581371129912, -0.018148637442792132, 1.4915643509419032, -0.14272702138537507, -0.051909674923013051, 0.24884424038516417, -0.14076927277504692, 0.24028769327848554, 0.17987245862849977, -1.251498370074509, -1.1150186818942012, 0.253585059074946, -0.0097628361773619173, -0.56783710021567835, 0.022852132217887719, 0.17424237239182139, -0.23433197643461423, -0.24194915048167756, -0.07913570352687864, -0.11395603451641766, -0.012338922826156149, 0.21733469954195306, -0.096022867695655906, -0.24360655692257252, 0.39982169032868148, 0.14642804926271075, -0.52713869817100145, 0.20662733957557475], [-0.67944848596284713, 0.10787725525896713, 2.0754272942043861, 0.20424611555520153, -0.19239831817743416, 0.74900800794954281, 0.46551547544827576, -0.39330683100978137, 0.05282117990731941, 0.42502818297645084, 0.13061210119258734, -0.026608333412952892, -0.28359903360604116, -0.089595879523946501, 0.37168779605023594, -0.080544641890152313, -0.2294168546019561, 0.21341293997235594, -0.0032477250069919339, -0.057065167569582277, 0.18551113238468395, -0.031828098597899077, -0.068008486999772855, -0.11479356901327303, -0.26224403220860348, 0.0034885695570934586, 0.15510521242480446, -0.086868868382204048]], [[3.3332129710086384, 1.211866965213505, 1.131855346981016, 2.5374455968537495, -2.7719132645306614, -0.28605472610073041, 3.0849684305170668, -0.060161230921947896, -1.9960477065332056, 1.4192027813749049, 0.3713234754594682, -0.91346258360702415, 0.43782813545049754, 0.27822138492388282, -0.23165290597457486, 0.062650553933640746, 0.18905267284299129, -0.0037119971501284365, -0.20408900555447029, 0.30519976954438033, 0.02978967489951935, -0.23253250936740202, 0.36944412239386537, -0.21675252894364283, 0.010488354828651706, 0.16732947342744145, -0.16407273508798711, 0.11718651701820267], [0.70140907947189612, -1.3472531632226432, -0.039393719288549317, 3.4792740848768826, -0.28642885783311312, -0.8608396369057898, 0.32946161500301274, -0.4346048355588682, 1.1419049989906953, -0.61477725141257045, -1.5842895527477674, 1.2501417758935955, 0.8515208926337593, -1.1671693293842968, 0.4598230669511702, 0.18065579580785032, -0.58819785972803129, 0.57931666867338893, 0.077261894621999463, -0.46481164974566586, 0.47738309003625001, -0.0030803297362374067, -0.27205989610298359, 0.19340551063097591, -0.074129965725196964, -0.0099484468320636451, 0.10706381059911924, -0.012975786068819245], [0.20964905594610658, -2.8442743511270372, -2.6601704458585194, 2.8602957008896288, -0.58548703956589099, -3.4407760697636545, 1.4261185658582034, 1.4398439436363031, -1.8163257384568838, -0.079756284199318003, 0.53533058085017093, -0.61491183110465852, -0.19103470464248809, 0.6267742363077925, -0.67601573313309149, -0.14183725331364019, 0.37771634886116273, -0.37405667575481399, 0.026152412798652037, 0.16333237587499477, -0.35757220367353293, 0.18802612364586718, -0.014236438494702996, -0.39685167204185307, 0.45260680472605747, -0.47516833757178062, 0.21939451823458345, -0.05263117729498331], [0.28165811925512202, -0.11794756566906525, 1.2202597234643304, 3.0247039781060248, -0.5042307429070112, -2.0175930822019739, -1.1330091280868584, 0.33322869227856089, 0.96484451294186624, -0.69332089217731152, -0.78499208998140046, 1.0617233137704993, -0.10759890000211858, -0.86989405882075266, 0.75282525455637683, 0.18930742668524608, -0.58810624112632448, 0.37003779377104357, -0.03086273161261982, -0.30631934606697436, 0.38895390059694979, -0.04274625179895896, -0.36212129266849552, 0.28735234463451031, 0.063414951277186535, -0.32210243298500718, 0.31757923685888567, -0.22230787173718636], [-0.66057291969428311, -0.79493346177467616, -0.22257308692267205, 2.673730727911265, 1.4726102572430257, -2.2201234375650927, -0.92628979077297258, 2.6461934212526566, -1.1681106188569454, -2.5455046140798001, 2.026351416616671, 0.094975062632706608, -2.3125394571441591, 1.392542058650194, 0.75389327266591033, -1.6385714411112224, 0.58745544986360376, 0.27355375763891748, -0.99931402560268923, 0.29657104516076244, 0.25321249929086037, -0.35278731958406817, 0.1742864489043208, 0.10526601720218691, -0.23029282480110655, 0.043745523355706729, 0.13345954702937446, -0.17296096566499258], [1.1764054933270507, -0.63037074603701138, -0.64906143183424914, 2.7901405975543789, 0.5446281035336823, -0.70613326350227246, 0.47357791273066263, 0.072931023471334677, -0.15855801012045889, 0.35259230120332313, -0.18070217749681283, 0.21657390857973707, 0.52890765986291144, -0.40740482203747513, -0.36662764971873063, 0.010266035271905279, 0.030353095005151657, 0.26925670783919214, 0.015823903631762275, -0.24920635591056725, -0.18362519731207691, -0.15924536175599649, 0.25477415134644116, 0.052577827137146253, -0.21832129862944255, 0.28047538953469159, -0.21278660841956035, -0.019854735466921198], [0.18790588115728868, 0.042800468394990437, 0.20073251411354817, 1.7591263559293604, 0.53709806923848247, -0.042509887811438843, 0.22145622620156469, 0.75482913094505755, 0.61757730554689627, -0.043850998714312889, -0.57078954822748051, -0.55861209351096597, -0.23907680263460321, 0.071446516762818921, 0.18832831732344404, -0.062956457751951245, -0.24107543768673143, 0.0069239218541748918, 0.15041307088359965, -0.0052793027129772506, -0.048029394391512034, 0.029062194089713587, 0.11881422839765726, 0.078378804955466397, -0.20171294078572563, -0.28272504515820412, 0.11280730319964445, -0.079102887392517807]], [[-0.0076374948686047869, 0.63142763848152461, 0.33041651345756839, 0.66177248579456638, 2.5905004752295273, 0.43858622285683707, -1.7038198169024952, -1.1494967383824322, 2.1697411976550582, -0.016157820914369118, -3.2386904916075396, -0.72275722897211436, 1.1946798846828919, -1.2171249926059466, -0.29298273011891285, 0.63722427677184523, -1.0773620154691312, -0.091377656199970653, 0.50698138424376182, -0.4688994528406592, -0.35487924738830912, 0.00061107877241993902, -0.0028583457666214885, 0.00031968134019780845, 0.084659963566968685, -0.58906808076344841, 0.12704860831537879, 0.083008655832652323], [0.076133545225610402, -0.18012793276609929, -0.46360046993936943, 0.19932194693131319, 1.5379331805457837, 0.032130045066530638, 0.32902842148392913, 0.49477233000229981, 0.14905048771589507, 0.44872276896260316, 0.073898823112756848, -0.76615935514824174, -0.34754101935917608, 0.33223547234298745, 0.047777202111157706, -0.13047353396566191, -0.1251591814820798, -0.17227397947730849, -0.039039927247504318, 0.2052327624178579, 0.024555289557302327, -0.18480118562571812, -0.054196693830244377, -0.070790372469853174, -0.21960339632628217, 0.01439569510178817, 0.66566930363741683, 0.23621185644684567], [-0.085198625243585291, -0.01021942153567562, 0.16234460653877239, 0.20280383373861613, 1.0834065288842423, -0.15195766422004084, -0.19449198788538646, 0.030375418911828642, -0.027116873583550596, -0.099579346907528496, 0.1088157876171824, -0.40521362038783582, -0.64989885620391508, 0.10373664722430151, 0.55004617720563731, 0.0039284128698235995, -0.084327477869111156, 0.16009656816127499, -0.15931777569822234, -0.20186213726349711, 0.10089291060244215, -0.042160900244222047, -0.10586052049236459, 0.15162591147773613, 0.057712306748669152, -0.068213091630760822, 0.17908139326974734, 0.072869740130674696], [0.019333715287070636, -0.00049317284848036643, 0.11684256221781104, 0.50181443628830824, 1.8624950655413162, 0.70677254537234291, -0.044131377455583938, -0.63780889562551812, -0.3518441174158683, 0.24126340433302357, 0.23669776684520236, -0.01704892229092328, -0.14154472572838908, -0.45501755564277896, -0.57750748797745621, -0.035729071261192465, 0.16047900068844032, -0.11186614410223521, -0.075101328214716295, -0.096935077954993176, -0.11984650600765351, 0.11130687142559968, 0.046551556430479993, -0.048426375859340634, -0.045506173027013284, -0.13272935935459568, 0.052667112148160861, 0.070733294400696992], [0.14134384508565759, 0.081936295416795202, 0.0095455639600436123, 0.36318057649917407, 1.6100101126725139, 0.11167856087088153, -0.67620268537783801, -0.9762723507442167, -0.47235771492548162, 0.22346198571831696, 0.27996479276158326, 0.055978265771652463, -0.28535302494800741, -0.9810151306704421, -0.77556399978074742, 0.33223264984670287, 0.22702623135548966, -0.44590533663043252, -0.1232628954201371, -0.017604245061064942, -0.057119063908060409, 0.52129457381053534, 0.085998253500540259, -0.70642893435247978, 0.12801151088346202, 0.45866346587310552, -0.46081969108710458, -0.27538916356918325], [-0.13046856297782516, 0.24417962007931315, 0.1849037805099355, -0.0042114175367497031, 1.6331952397436302, 0.28107434682829663, -0.79224304230792941, -0.18946421929504872, 0.40092961664983406, -0.27707910525179991, -0.18632964257566356, 0.15471184424131426, -0.42661941090123973, -0.59791145440202575, -0.068635556477954329, 0.26532608911690914, 0.041476160651559707, -0.43283238973619059, -0.34355789767691974, -0.16022904681942493, -0.43909800907383212, -0.080214640169286866, 0.35481577030809242, -0.19782058944815409, -0.23792569707075431, 0.34980704455977113, 0.022613249049279721, -0.240204594238113], [0.20030570430246175, 0.38500058673706822, -0.11811174729317579, -0.10530971371252584, 1.8568592563957727, 0.13831183363520147, -1.3418968172523988, -0.67051481697588844, 0.0050094827119945198, -0.16763828674482756, 0.759561896681056, 0.82862850101678409, -0.2219700191455109, 0.01557240254234841, 0.096236325848118767, -0.12395585338746307, 0.56102885409801528, 0.25487439313679511, -0.34250401522360319, 0.068126578540630353, 0.0021498130210936962, 0.14245432711018341, 0.24591576956320874, -0.39018717067457503, 0.21022276649547267, 0.32327091713873246, -0.46373716522625874, 0.039926851449397949]]], prehc: 10000, lambdahc: 1, rcut: 7, dcut: 0.01, rcut_in: 1.2700000000000002, dcut_in: 0.10000000000000001, inner_cutoff_type: distance}
functions:
  0:
    - {mu0: 0, rank: 1, ndensity: 2, num_ms_combs: 1, mus: [0], ns: [1], ls: [0], ms_combs: [0], ctildes: [-2.2972896299996915e-08, -4.044239745224214e-09]}
    - {mu0: 0, rank: 1, ndensity: 2, num_ms_combs: 1, mus: [0], ns: [2], ls: [0], ms_combs: [0], ctildes: [-1.1331159780194268e-07, -8.2055780155276761e-07]}
    - {mu0: 0, rank: 1, ndensity: 2, num_ms_combs: 1, mus: [0], ns: [3], ls: [0], ms_combs: [0], ctildes: [-1.0473751107427695e-07, -1.0354617386966028e-05]}
    - {mu0: 0, rank: 1, ndensity: 2, num_ms_combs: 1, mus: [0], ns: [4], ls: [0], ms_combs: [0], ctildes: [1.2964275626238466e-08, -1.1230154228989754e-07]}
    - {mu0: 0, rank: 1, ndensity: 2, num_ms_combs: 1, mus: [0], ns: [5], ls: [0], ms_combs: [0], ctildes: [1.5305814105376018e-06, 1.0850030624356335e-07]}
    - {mu0: 0, rank: 1, ndensity: 2, num_ms_combs: 1, mus: [0], ns: [6], ls: [0], ms_combs: [0], ctildes: [3.9869361909250366e-08, -2.8573658579572112e-08]}
    - {mu0: 0, rank: 1, ndensity: 2, num_ms_combs: 1, mus: [0], ns: [7], ls: [0], ms_combs: [0], ctildes: [4.5187967981687403e-08, -3.4904581206272879e-07]}
    - {mu0: 0, rank: 1, ndensity: 2, num_ms_combs: 1, mus: [0], ns: [8], ls: [0], ms_combs: [0], ctildes: [0.00011984579606448468, 1.3443731217026595e-07]}
    - {mu0: 0, rank: 1, ndensity: 2, num_ms_combs: 1, mus: [0], ns: [9], ls: [0], ms_combs: [0], ctildes: [2.1651799253079941e-08, 3.3592351607216337e-08]}
    - {mu0: 0, rank: 1, ndensity: 2, num_ms_combs: 1, mus: [0], ns: [10], ls: [0], ms_combs: [0], ctildes: [-0.0016709004642255438, -5.2377145727188164e-08]}
    - {mu0: 0, rank: 1, ndensity: 2, num_ms_combs: 1, mus: [0], ns: [11], ls: [0], ms_combs: [0], ctildes: [-1.9489305566174302e-06, 4.2667680634527057e-08]}
    - {mu0: 0, rank: 1, ndensity: 2, num_ms_combs: 1, mus: [0], ns: [12], ls: [0], ms_combs: [0], ctildes: [-3.7479088772894663e-07, -1.1863949417560473e-07]}
    - {mu0: 0, rank: 1, ndensity: 2, num_ms_combs: 1, mus: [0], ns: [13], ls: [0], ms_combs: [0], ctildes: [2.4287678072431986e-06, -1.4256433117764952e-08]}
    - {mu0: 0, rank: 1, ndensity: 2, num_ms_combs: 1, mus: [0], ns: [14], ls: [0], ms_combs: [0], ctildes: [-3.4545021742525198e-06, -1.6119855463903952e-06]}
    - {mu0: 0, rank: 1, ndensity: 2, num_ms_combs: 1, mus: [0], ns: [15], ls: [0], ms_combs: [0], ctildes: [0.0022591531446628224, 5.7282588552696587e-08]}
    - {mu0: 0, rank: 1, ndensity: 2, num_ms_combs: 1, mus: [0], ns: [16], ls: [0], ms_combs: [0], ctildes: [-1.0901590217011107e-07, -2.6942437239908367e-07]}
    - {mu0: 0, rank: 1, ndensity: 2, num_ms_combs: 1, mus: [0], ns: [17], ls: [0], ms_combs: [0], ctildes: [-1.7222737559085818e-09, 4.1535148465316625e-08]}
    - {mu0: 0, rank: 1, ndensity: 2, num_ms_combs: 1, mus: [0], ns: [18], ls: [0], ms_combs: [0], ctildes: [0.00012444863397142089, -3.6119105082528349e-07]}
    - {mu0: 0, rank: 1, ndensity: 2, num_ms_combs: 1, mus: [0], ns: [19], ls: [0], ms_combs: [0], ctildes: [0.00067245090489050541, -4.0291991108054201e-08]}
    - {mu0: 0, rank: 1, ndensity: 2, num_ms_combs: 1, mus: [0], ns: [20], ls: [0], ms_combs: [0], ctildes: [-0.0022251173790421353, -6.006638404772404e-08]}
    - {mu0: 0, rank: 1, ndensity: 2, num_ms_combs: 1, mus: [0], ns: [21], ls: [0], ms_combs: [0], ctildes: [-1.4553204127004596e-06, -2.630879254983188e-07]}
    - {mu0: 0, rank: 1, ndensity: 2, num_ms_combs: 1, mus: [0], ns: [22], ls: [0], ms_combs: [0], ctildes: [7.609780502211251e-06, 2.9983227879804285e-07]}
    - {mu0: 0, rank: 1, ndensity: 2, num_ms_combs: 1, mus: [0], ns: [23], ls: [0], ms_combs: [0], ctildes: [-7.0956692906533789e-05, -3.4852130198352734e-07]}
    - {mu0: 0, rank: 1, ndensity: 2, num_ms_combs: 1, mus: [0], ns: [24], ls: [0], ms_combs: [0], ctildes: [-0.0003004324310740005, -1.7183987769688086e-07]}
    - {mu0: 0, rank: 1, ndensity: 2, num_ms_combs: 1, mus: [0], ns: [25], ls: [0], ms_combs: [0], ctildes: [-0.00011901706696770069, 4.5086922635056448e-08]}
    - {mu0: 0, rank: 1, ndensity: 2, num_ms_combs: 1, mus: [0], ns: [26], ls: [0], ms_combs: [0], ctildes: [-7.5360866541292196e-05, 5.3326728615609585e-07]}
    - {mu0: 0, rank: 1, ndensity: 2, num_ms_combs: 1, mus: [0], ns: [27], ls: [0], ms_combs: [0], ctildes: [-4.4272904579632073e-06, -8.6876756794631564e-08]}
    - {mu0: 0, rank: 1, ndensity: 2, num_ms_combs: 1, mus: [0], ns: [28], ls: [0], ms_combs: [0], ctildes: [0.00058098529603743741, -3.3167789152081694e-06]}
    - {mu0: 0, rank: 1, ndensity: 2, num_ms_combs: 1, mus: [1], ns: [1], ls: [0], ms_combs: [0], ctildes: [-1.9226877949044823e-06, 3.8546418909429928e-08]}
    - {mu0: 0, rank: 1, ndensity: 2, num_ms_combs: 1, mus: [1], ns: [2], ls: [0], ms_combs: [0], ctildes: [-2.0095486472417726e-08, 5.6167852216001577e-08]}
    - {mu0: 0, rank: 1, ndensity: 2, num_ms_combs: 1, mus: [1], ns: [3], ls: [0], ms_combs: [0], ctildes: [7.2127856598971675e-08, 6.4378430553625599e-08]}
    - {mu0: 0, rank: 1, ndensity: 2, num_ms_combs: 1, mus: [1], ns: [4], ls: [0], ms_combs: [0], ctildes: [3.8397825151926951e-08, -1.4679976103064647e-07]}
    - {mu0: 0, rank: 1, ndensity: 2, num_ms_combs: 1, mus: [1], ns: [5], ls: [0], ms_combs: [0], ctildes: [-2.9878873832594266e-08, -4.8719458792424553e-07]}
    - {mu0: 0, rank: 1, ndensity: 2, num_ms_combs: 1, mus: [1], ns: [6], ls: [0], ms_combs: [0], ctildes: [-7.7045974306374987e-07, -4.5261723878175463e-08]}
    - {mu0: 0, rank: 1, ndensity: 2, num_ms_combs: 1, mus: [1], ns: [7], ls: [0], ms_combs: [0], ctildes: [-4.7392238712763993e-08, 2.2187632892531211e-08]}
    - {mu0: 0, rank: 1, ndensity: 2, num_ms_combs: 1, mus: [1], ns: [8], ls: [0], ms_combs: [0], ctildes: [4.1191917136053985e-08, 6.0241142376766361e-07]}
    - {mu0: 0, rank: 1, ndensity: 2, num_ms_combs: 1, mus: [1], ns: [9], ls: [0], ms_combs: [0], ctildes: [2.5794063912225881e-07, -9.741528585052364e-08]}
    - {mu0: 0, rank: 1, ndensity: 2, num_ms_combs: 1, mus: [1], ns: [10], ls: [0], ms_combs: [0], ctildes: [-1.9896250423335603e-06, -3.2676745899982494e-09]}
    - {mu0: 0, rank: 1, ndensity: 2, num_ms_combs: 1, mus: [1], ns: [11], ls: [0], ms_combs: [0], ctildes: [2.3874147591769448e-07, 5.3149469760327898e-08]}
    - {mu0: 0, rank: 1, ndensity: 2, num_ms_combs: 1, mus: [1], ns: [12], ls: [0], ms_combs: [0], ctildes: [9.0592690797625869e-07, 2.4895912185892446e-08]}
    - {mu0: 0, rank: 1, ndensity: 2, num_ms_combs: 1, mus: [1], ns: [13], ls: [0], ms_combs: [0], ctildes: [-7.3899247124056566e-08, -3.1956317404061738e-08]}
    - {mu0: 0, rank: 2, ndensity: 2, num_ms_combs: 1, mus: [0, 0], ns: [1, 1], ls: [0, 0], ms_combs: [0, 0], ctildes: [0.010205904819415208, -2.9887191343758599e-06]}
    - {mu0: 0, rank: 2, ndensity: 2, num_ms_combs: 2, mus: [0, 0], ns: [1, 1], ls: [1, 1], ms_combs: [0, 0, 1, -1], ctildes: [0.00027749053594470764, -0.011165419828424448, -0.00055498107188941517, 0.022330839656848889]}
    - {mu0: 0, rank: 2, ndensity: 2, num_ms_combs: 3, mus: [0, 0], ns: [1, 1], ls: [2, 2], ms_combs: [0, 0, 1, -1, 2, -2], ctildes: [0.0024846408857785718, -0.013634300948596766, -0.0049692817715571436, 0.027268601897193535, 0.0049692817715571453, -0.027268601897193542]}
    - {mu0: 0, rank: 2, ndensity: 2, num_ms_combs: 4, mus: [0, 0], ns: [1, 1], ls: [3, 3], ms_combs: [0, 0, 1, -1, 2, -2, 3, -3], ctildes: [-8.110183099689443e-06, -1.6647689088901357e-08, 1.6220366199378886e-05, 3.3295378177802714e-08, -1.6220366199378883e-05, -3.3295378177802707e-08, 1.6220366199378883e-05, 3.3295378177802707e-08]}
    - {mu0: 0, rank: 2, ndensity: 2, num_ms_combs: 5, mus: [0, 0], ns: [1, 1], ls: [4, 4], ms_combs: [0, 0, 1, -1, 2, -2, 3, -3, 4, -4], ctildes: [7.5262245815994606e-05, 7.8372065437505282e-08, -0.00015052449163198913, -1.5674413087501048e-07, 0.00015052449163198913, 1.5674413087501048e-07, -0.00015052449163198913, -1.5674413087501048e-07, 0.00015052449163198916, 1.5674413087501051e-07]}
    - {mu0: 0, rank: 2, ndensity: 2, num_ms_combs: 6, mus: [0, 0], ns: [1, 1], ls: [5, 5], ms_combs: [0, 0, 1, -1, 2, -2, 3, -3, 4, -4, 5, -5], ctildes: [-1.3829411697703526e-05, -1.2711288382722244e-07, 2.7658823395407051e-05, 2.5422576765444488e-07, -2.7658823395407055e-05, -2.5422576765444494e-07, 2.7658823395407062e-05, 2.5422576765444499e-07, -2.7658823395407055e-05, -2.5422576765444494e-07, 2.7658823395407024e-05, 2.5422576765444467e-07]}
    - {mu0: 0, rank: 2, ndensity: 2, num_ms_combs: 7, mus: [0, 0], ns: [1, 1], ls: [6, 6], ms_combs: [0, 0, 1, -1, 2, -2, 3, -3, 4, -4, 5, -5, 6, -6], ctildes: [-4.4851240531471051e-05, 5.4081170161815921e-09, 8.9702481062942143e-05, -1.0816234032363188e-08, -8.9702481062942102e-05, 1.0816234032363184e-08, 8.9702481062942116e-05, -1.0816234032363186e-08, -8.9702481062942116e-05, 1.0816234032363186e-08, 8.9702481062942102e-05, -1.0816234032363184e-08, -8.9702481062942048e-05, 1.0816234032363178e-08]}
    - {mu0: 0, rank: 2, ndensity: 2, num_ms_combs: 1, mus: [0, 0], ns: [1, 2], ls: [0, 0], ms_combs: [0, 0], ctildes: [-2.3483156266228732e-05, -8.3788159862288305e-06]}
    - {mu0: 0, rank: 2, ndensity: 2, num_ms_combs: 2, mus: [0, 0], ns: [1, 2], ls: [1, 1], ms_combs: [0, 0, 1, -1], ctildes: [-2.1378118060721595e-06, 1.8682091968893449e-07, 4.275623612144319e-06, -3.7364183937786892e-07]}
    - {mu0: 0, rank: 2, ndensity: 2, num_ms_combs: 3, mus: [0, 0], ns: [1, 2], ls: [2, 2], ms_combs: [0, 0, 1, -1, 2, -2], ctildes: [-6.9781549321583001e-05, 1.8700751772843922e-08, 0.000139563098643166, -3.7401503545687844e-08, -0.00013956309864316606, 3.7401503545687857e-08]}
    - {mu0: 0, rank: 2, ndensity: 2, num_ms_combs: 4, mus: [0, 0], ns: [1, 2], ls: [3, 3], ms_combs: [0, 0, 1, -1, 2, -2, 3, -3], ctildes: [4.4632023789772601e-09, -6.9877413522395249e-08, -8.9264047579545203e-09, 1.397548270447905e-07, 8.9264047579545203e-09, -1.3975482704479047e-07, -8.9264047579545203e-09, 1.3975482704479047e-07]}
    - {mu0: 0, rank: 2, ndensity: 2, num_ms_combs: 5, mus: [0, 0], ns: [1, 2], ls: [4, 4], ms_combs: [0, 0, 1, -1, 2, -2, 3, -3, 4, -4], ctildes: [-0.00011238561068542503, -1.9984756843559244e-07, 0.00022477122137084992, 3.9969513687118471e-07, -0.00022477122137084992, -3.9969513687118471e-07, 0.00022477122137084992, 3.9969513687118471e-07, -0.00022477122137084998, -3.9969513687118477e-07]}
    - {mu0: 0, rank: 2, ndensity: 2, num_ms_combs: 6, mus: [0, 0], ns: [1, 2], ls: [5, 5], ms_combs: [0, 0, 1, -1, 2, -2, 3, -3, 4, -4, 5, -5], ctildes: [-3.4071501384818469e-08, 1.0418686163048757e-08, 6.8143002769636937e-08, -2.0837372326097513e-08, -6.814300276963695e-08, 2.0837372326097516e-08, 6.8143002769636964e-08, -2.083737232609752e-08, -6.814300276963695e-08, 2.0837372326097516e-08, 6.8143002769636871e-08, -2.0837372326097493e-08]}
    - {mu0: 0, rank: 2, ndensity: 2, num_ms_combs: 7, mus: [0, 0], ns: [1, 2], ls: [6, 6], ms_combs: [0, 0, 1, -1, 2, -2, 3, -3, 4, -4, 5, -5, 6, -6], ctildes: [-5.2950986225224607e-05, -1.6454815293568338e-07, 0.00010590197245044927, 3.2909630587136687e-07, -0.00010590197245044921, -3.2909630587136677e-07, 0.00010590197245044924, 3.2909630587136682e-07, -0.00010590197245044924, -3.2909630587136682e-07, 0.00010590197245044921, 3.2909630587136677e-07, -0.00010590197245044916, -3.2909630587136655e-07]}
    - {mu0: 0, rank: 2, ndensity: 2, num_ms_combs: 1, mus: [0, 0], ns: [1, 3], ls: [0, 0], ms_combs: [0, 0], ctildes: [-2.1211880294901393e-05, 1.3111744321815497e-06]}
    - {mu0: 0, rank: 2, ndensity: 2, num_ms_combs: 2, mus: [0, 0], ns: [1, 3], ls: [1, 1], ms_combs: [0, 0, 1, -1], ctildes: [0.00038937096540912693, 1.3832559210780971e-07, -0.00077874193081825364, -2.7665118421561937e-07]}
    - {mu0: 0, rank: 2, ndensity: 2, num_ms_combs: 3, mus: [0, 0], ns: [1, 3], ls: [2, 2], ms_combs: [0, 0, 1, -1, 2, -2], ctildes: [-8.6045863258372625e-08, 0.0072472542330261286, 1.7209172651674528e-07, -0.014494508466052259, -1.7209172651674533e-07, 0.014494508466052262]}
    - {mu0: 0, rank: 2, ndensity: 2, num_ms_combs: 4, mus: [0, 0], ns: [1, 3], ls: [3, 3], ms_combs: [0, 0, 1, -1, 2, -2, 3, -3], ctildes: [0.00047639863514943701, -2.9606333843281171e-08, -0.00095279727029887401, 5.9212667686562342e-08, 0.0009527972702988738, -5.9212667686562336e-08, -0.0009527972702988738, 5.9212667686562336e-08]}
    - {mu0: 0, rank: 2, ndensity: 2, num_ms_combs: 5, mus: [0, 0], ns: [1, 3], ls: [4, 4], ms_combs: [0, 0, 1, -1, 2, -2, 3, -3, 4, -4], ctildes: [5.7777992692497345e-07, -3.1332865030626415e-08, -1.1555598538499463e-06, 6.2665730061252804e-08, 1.1555598538499463e-06, -6.2665730061252804e-08, -1.1555598538499463e-06, 6.2665730061252804e-08, 1.1555598538499465e-06, -6.2665730061252804e-08]}
    - {mu0: 0, rank: 2, ndensity: 2, num_ms_combs: 6, mus: [0, 0], ns: [1, 3], ls: [5, 5], ms_combs: [0, 0, 1, -1, 2, -2, 3, -3, 4, -4, 5, -5], ctildes: [-4.8728771504252496e-07, 2.8014435121516501e-09, 9.7457543008504992e-07, -5.6028870243033003e-09, -9.7457543008505013e-07, 5.6028870243033011e-09, 9.7457543008505034e-07, -5.6028870243033027e-09, -9.7457543008505013e-07, 5.6028870243033011e-09, 9.7457543008504907e-07, -5.6028870243032953e-09]}
    - {mu0: 0, rank: 2, ndensity: 2, num_ms_combs: 7, mus: [0, 0], ns: [1, 3], ls: [6, 6], ms_combs: [0, 0, 1, -1, 2, -2, 3, -3, 4, -4, 5, -5, 6, -6], ctildes: [3.8332185285216801e-05, -7.6734772878480765e-08, -7.6664370570433629e-05, 1.5346954575696161e-07, 7.6664370570433602e-05, -1.5346954575696153e-07, -7.6664370570433615e-05, 1.5346954575696156e-07, 7.6664370570433615e-05, -1.5346954575696156e-07, -7.6664370570433602e-05, 1.5346954575696153e-07, 7.6664370570433548e-05, -1.5346954575696145e-07]}
    - {mu0: 0, rank: 2, ndensity: 2, num_ms_combs: 1, mus: [0, 0], ns: [1, 4], ls: [0, 0], ms_combs: [0, 0], ctildes: [2.6764097989542615e-06, -5.1998188989820416e-07]}
    - {mu0: 0, rank: 2, ndensity: 2, num_ms_combs: 2, mus: [0, 0], ns: [1, 4], ls: [1, 1], ms_combs: [0, 0, 1, -1], ctildes: [-1.0061692074419058e-05, -4.3689187780891451e-06, 2.0123384148838113e-05, 8.7378375561782884e-06]}
    - {mu0: 0, rank: 2, ndensity: 2, num_ms_combs: 3, mus: [0, 0], ns: [1, 4], ls: [2, 2], ms_combs: [0, 0, 1, -1, 2, -2], ctildes: [1.4226809741871193e-05, 9.5357493708650055e-06, -2.845361948374239e-05, -1.9071498741730011e-05, 2.8453619483742397e-05, 1.9071498741730018e-05]}
    - {mu0: 0, rank: 2, ndensity: 2, num_ms_combs: 4, mus: [0, 0], ns: [1, 4], ls: [3, 3], ms_combs: [0, 0, 1, -1, 2, -2, 3, -3], ctildes: [-6.5175009385145315e-07, 5.2835613421617345e-09, 1.3035001877029063e-06, -1.0567122684323469e-08, -1.3035001877029061e-06, 1.0567122684323467e-08, 1.3035001877029061e-06, -1.0567122684323467e-08]}
    - {mu0: 0, rank: 2, ndensity: 2, num_ms_combs: 5, mus: [0, 0], ns: [1, 4], ls: [4, 4], ms_combs: [0, 0, 1, -1, 2, -2, 3, -3, 4, -4], ctildes: [4.3941983862833189e-05, 1.0044741900373959e-08, -8.7883967725666337e-05, -2.0089483800747908e-08, 8.7883967725666337e-05, 2.0089483800747908e-08, -8.7883967725666337e-05, -2.0089483800747908e-08, 8.788396772566635e-05, 2.0089483800747911e-08]}
    - {mu0: 0, rank: 2, ndensity: 2, num_ms_combs: 6, mus: [0, 0], ns: [1, 4], ls: [5, 5], ms_combs: [0, 0, 1, -1, 2, -2, 3, -3, 4, -4, 5, -5], ctildes: [1.0879148408429515e-08, 3.0537934975809845e-08, -2.175829681685903e-08, -6.107586995161969e-08, 2.1758296816859033e-08, 6.1075869951619704e-08, -2.175829681685904e-08, -6.1075869951619717e-08, 2.1758296816859033e-08, 6.1075869951619704e-08, -2.175829681685901e-08, -6.1075869951619637e-08]}
    - {mu0: 0, rank: 2, ndensity: 2, num_ms_combs: 7, mus: [0, 0], ns: [1, 4], ls: [6, 6], ms_combs: [0, 0, 1, -1, 2, -2, 3, -3, 4, -4, 5, -5, 6, -6], ctildes: [-0.00017138781619300135, 1.6460953287489837e-08, 0.0003427756323860028, -3.2921906574979688e-08, -0.00034277563238600269, 3.2921906574979674e-08, 0.00034277563238600275, -3.2921906574979681e-08, -0.00034277563238600275, 3.2921906574979681e-08, 0.00034277563238600269, -3.2921906574979674e-08, -0.00034277563238600247, 3.2921906574979655e-08]}
    - {mu0: 0, rank: 2, ndensity: 2, num_ms_combs: 1, mus: [0, 0], ns: [1, 5], ls: [0, 0], ms_combs: [0, 0], ctildes: [6.4819874684926215e-06, -1.53586094080346e-07]}
    - {mu0: 0, rank: 2, ndensity: 2, num_ms_combs: 2, mus: [0, 0], ns: [1, 5], ls: [1, 1], ms_combs: [0, 0, 1, -1], ctildes: [1.484332814345453e-07, 2.850680700384232e-07, -2.9686656286909049e-07, -5.7013614007684619e-07]}
    - {mu0: 0, rank: 2, ndensity: 2, num_ms_combs: 3, mus: [0, 0], ns: [1, 5], ls: [2, 2], ms_combs: [0, 0, 1, -1, 2, -2], ctildes: [2.5179057820680853e-07, 0.00055663426774128419, -5.0358115641361707e-07, -0.0011132685354825684, 5.0358115641361728e-07, 0.0011132685354825686]}
    - {mu0: 0, rank: 2, ndensity: 2, num_ms_combs: 4, mus: [0, 0], ns: [1, 5], ls: [3, 3], ms_combs: [0, 0, 1, -1, 2, -2, 3, -3], ctildes: [6.0556609411236075e-06, 3.2272416694873795e-09, -1.2111321882247215e-05, -6.4544833389747591e-09, 1.2111321882247213e-05, 6.4544833389747582e-09, -1.2111321882247213e-05, -6.4544833389747582e-09]}
    - {mu0: 0, rank: 2, ndensity: 2, num_ms_combs: 5, mus: [0, 0], ns: [1, 5], ls: [4, 4], ms_combs: [0, 0, 1, -1, 2, -2, 3, -3, 4, -4], ctildes: [-2.7793580410123192e-05, 6.567118402622351e-09, 5.5587160820246356e-05, -1.3134236805244695e-08, -5.5587160820246356e-05, 1.3134236805244695e-08, 5.5587160820246356e-05, -1.3134236805244695e-08, -5.558716082024637e-05, 1.3134236805244697e-08]}
    - {mu0: 0, rank: 2, ndensity: 2, num_ms_combs: 6, mus: [0, 0], ns: [1, 5], ls: [5, 5], ms_combs: [0, 0, 1, -1, 2, -2, 3, -3, 4, -4, 5, -5], ctildes: [4.862602030381482e-07, 3.3166308722078799e-08, -9.7252040607629641e-07, -6.6332617444157597e-08, 9.7252040607629662e-07, 6.6332617444157611e-08, -9.7252040607629662e-07, -6.6332617444157624e-08, 9.7252040607629662e-07, 6.6332617444157611e-08, -9.7252040607629535e-07, -6.6332617444157531e-08]}
    - {mu0: 0, rank: 2, ndensity: 2, num_ms_combs: 7, mus: [0, 0], ns: [1, 5], ls: [6, 6], ms_combs: [0, 0, 1, -1, 2, -2, 3, -3, 4, -4, 5, -5, 6, -6], ctildes: [-3.9488650909824454e-06, 7.6232500793786207e-09, 7.8977301819648941e-06, -1.5246500158757245e-08, -7.8977301819648907e-06, 1.5246500158757241e-08, 7.8977301819648924e-06, -1.5246500158757245e-08, -7.8977301819648924e-06, 1.5246500158757245e-08, 7.8977301819648907e-06, -1.5246500158757241e-08, -7.8977301819648873e-06, 1.5246500158757232e-08]}
    - {mu0: 0, rank: 2, ndensity: 2, num_ms_combs: 1, mus: [0, 0], ns: [2, 2], ls: [0, 0], ms_combs: [0, 0], ctildes: [-0.0037026177529531201, -0.017895627738688656]}
    - {mu0: 0, rank: 2, ndensity: 2, num_ms_combs: 2, mus: [0, 0], ns: [2, 2], ls: [1, 1], ms_combs: [0, 0, 1, -1], ctildes: [0.00050148784966691799, 1.9451840969454575e-09, -0.0010029756993338358, -3.8903681938909142e-09]}
    - {mu0: 0, rank: 2, ndensity: 2, num_ms_combs: 3, mus: [0, 0], ns: [2, 2], ls: [2, 2], ms_combs: [0, 0, 1, -1, 2, -2], ctildes: [5.1069946973310706e-06, 4.6143532805237466e-08, -1.0213989394662143e-05, -9.2287065610474944e-08, 1.0213989394662145e-05, 9.2287065610474971e-08]}
    - {mu0: 0, rank: 2, ndensity: 2, num_ms_combs: 4, mus: [0, 0], ns: [2, 2], ls: [3, 3], ms_combs: [0, 0, 1, -1, 2, -2, 3, -3], ctildes: [3.2899376015183483e-09, -3.7733082330472112e-08, -6.5798752030366966e-09, 7.5466164660944224e-08, 6.579875203036695e-09, -7.5466164660944211e-08, -6.579875203036695e-09, 7.5466164660944211e-08]}
    - {mu0: 0, rank: 2, ndensity: 2, num_ms_combs: 5, mus: [0, 0], ns: [2, 2], ls: [4, 4], ms_combs: [0, 0, 1, -1, 2, -2, 3, -3, 4, -4], ctildes: [6.3835423979415232e-06, -2.5084161677004165e-07, -1.276708479588304e-05, 5.0168323354008309e-07, 1.276708479588304e-05, -5.0168323354008309e-07, -1.276708479588304e-05, 5.0168323354008309e-07, 1.2767084795883041e-05, -5.0168323354008309e-07]}
    - {mu0: 0, rank: 2, ndensity: 2, num_ms_combs: 6, mus: [0, 0], ns: [2, 2], ls: [5, 5], ms_combs: [0, 0, 1, -1, 2, -2, 3, -3, 4, -4, 5, -5], ctildes: [-1.1308874370772508e-08, -9.9390956265918667e-08, 2.2617748741545016e-08, 1.9878191253183733e-07, -2.2617748741545019e-08, -1.9878191253183736e-07, 2.2617748741545023e-08, 1.9878191253183741e-07, -2.2617748741545019e-08, -1.9878191253183736e-07, 2.2617748741544993e-08, 1.9878191253183715e-07]}
    - {mu0: 0, rank: 2, ndensity: 2, num_ms_combs: 7, mus: [0, 0], ns: [2, 2], ls: [6, 6], ms_combs: [0, 0, 1, -1, 2, -2, 3, -3, 4, -4, 5, -5, 6, -6], ctildes: [-5.8296713962117467e-07, -1.009044983064446e-07, 1.1659342792423498e-06, 2.0180899661288931e-07, -1.1659342792423493e-06, -2.0180899661288921e-07, 1.1659342792423495e-06, 2.0180899661288926e-07, -1.1659342792423495e-06, -2.0180899661288926e-07, 1.1659342792423493e-06, 2.0180899661288921e-07, -1.1659342792423487e-06, -2.018089966128891e-07]}
    - {mu0: 0, rank: 2, ndensity: 2, num_ms_combs: 1, mus: [0, 0], ns: [2, 3], ls: [0, 0], ms_combs: [0, 0], ctildes: [-4.6928452278154919e-05, -3.355261484873711e-07]}
    - {mu0: 0, rank: 2, ndensity: 2, num_ms_combs: 2, mus: [0, 0], ns: [2, 3], ls: [1, 1], ms_combs: [0, 0, 1, -1], ctildes: [2.1474745138564709e-07, 1.2099114297623659e-08, -4.2949490277129408e-07, -2.4198228595247314e-08]}
    - {mu0: 0, rank: 2, ndensity: 2, num_ms_combs: 3, mus: [0, 0], ns: [2, 3], ls: [2, 2], ms_combs: [0, 0, 1, -1, 2, -2], ctildes: [-1.8457151106890694e-09, -1.2106400721352842e-08, 3.6914302213781392e-09, 2.4212801442705687e-08, -3.6914302213781401e-09, -2.4212801442705693e-08]}
    - {mu0: 0, rank: 2, ndensity: 2, num_ms_combs: 4, mus: [0, 0], ns: [2, 3], ls: [3, 3], ms_combs: [0, 0, 1, -1, 2, -2, 3, -3], ctildes: [1.0708145231719219e-06, -2.6448328509478141e-09, -2.1416290463438438e-06, 5.2896657018956282e-09, 2.1416290463438434e-06, -5.2896657018956273e-09, -2.1416290463438434e-06, 5.2896657018956273e-09]}
    - {mu0: 0, rank: 2, ndensity: 2, num_ms_combs: 5, mus: [0, 0], ns: [2, 3], ls: [4, 4], ms_combs: [0, 0, 1, -1, 2, -2, 3, -3, 4, -4], ctildes: [-4.9590933631343643e-08, -6.2987558076199593e-08, 9.9181867262687233e-08, 1.2597511615239913e-07, -9.9181867262687233e-08, -1.2597511615239913e-07, 9.9181867262687233e-08, 1.2597511615239913e-07, -9.9181867262687246e-08, -1.2597511615239916e-07]}
    - {mu0: 0, rank: 2, ndensity: 2, num_ms_combs: 6, mus: [0, 0], ns: [2, 3], ls: [5, 5], ms_combs: [0, 0, 1, -1, 2, -2, 3, -3, 4, -4, 5, -5], ctildes: [6.0433593388115026e-08, -6.6902841303778054e-09, -1.2086718677623005e-07, 1.3380568260755611e-08, 1.2086718677623008e-07, -1.3380568260755612e-08, -1.208671867762301e-07, 1.3380568260755616e-08, 1.2086718677623008e-07, -1.3380568260755612e-08, -1.2086718677622995e-07, 1.3380568260755598e-08]}
    - {mu0: 0, rank: 2, ndensity: 2, num_ms_combs: 7, mus: [0, 0], ns: [2, 3], ls: [6, 6], ms_combs: [0, 0, 1, -1, 2, -2, 3, -3, 4, -4, 5, -5, 6, -6], ctildes: [3.0183815295057048e-05, -1.5320182492452206e-07, -6.0367630590114122e-05, 3.0640364984904422e-07, 6.0367630590114095e-05, -3.0640364984904411e-07, -6.0367630590114109e-05, 3.0640364984904417e-07, 6.0367630590114109e-05, -3.0640364984904417e-07, -6.0367630590114095e-05, 3.0640364984904411e-07, 6.0367630590114061e-05, -3.064036498490439e-07]}
    - {mu0: 0, rank: 2, ndensity: 2, num_ms_combs: 1, mus: [0, 0], ns: [2, 4], ls: [0, 0], ms_combs: [0, 0], ctildes: [-0.0047640664410349767, -0.018583784556749691]}
    - {mu0: 0, rank: 2, ndensity: 2, num_ms_combs: 2, mus: [0, 0], ns: [2, 4], ls: [1, 1], ms_combs: [0, 0, 1, -1], ctildes: [3.7590682413228903e-05, -4.0712600588586976e-08, -7.5181364826457792e-05, 8.1425201177173939e-08]}
    - {mu0: 0, rank: 2, ndensity: 2, num_ms_combs: 3, mus: [0, 0], ns: [2, 4], ls: [2, 2], ms_combs: [0, 0, 1, -1, 2, -2], ctildes: [-2.4245550400617978e-05, 7.9556067195661361e-08, 4.8491100801235964e-05, -1.5911213439132275e-07, -4.8491100801235977e-05, 1.5911213439132277e-07]}
    - {mu0: 0, rank: 2, ndensity: 2, num_ms_combs: 4, mus: [0, 0], ns: [2, 4], ls: [3, 3], ms_combs: [0, 0, 1, -1, 2, -2, 3, -3], ctildes: [-2.9446289759691088e-09, 2.2145086814799176e-08, 5.8892579519382175e-09, -4.4290173629598353e-08, -5.8892579519382167e-09, 4.4290173629598346e-08, 5.8892579519382167e-09, -4.4290173629598346e-08]}
    - {mu0: 0, rank: 2, ndensity: 2, num_ms_combs: 5, mus: [0, 0], ns: [2, 4], ls: [4, 4], ms_combs: [0, 0, 1, -1, 2, -2, 3, -3, 4, -4], ctildes: [1.2900263902294461e-07, 1.4092879372432473e-07, -2.5800527804588906e-07, -2.8185758744864931e-07, 2.5800527804588906e-07, 2.8185758744864931e-07, -2.5800527804588906e-07, -2.8185758744864931e-07, 2.5800527804588911e-07, 2.8185758744864936e-07]}
    - {mu0: 0, rank: 2, ndensity: 2, num_ms_combs: 6, mus: [0, 0], ns: [2, 4], ls: [5, 5], ms_combs: [0, 0, 1, -1, 2, -2, 3, -3, 4, -4, 5, -5], ctildes: [-6.5877628042539136e-08, 2.9668034735815585e-09, 1.3175525608507827e-07, -5.9336069471631171e-09, -1.317552560850783e-07, 5.9336069471631187e-09, 1.3175525608507832e-07, -5.9336069471631196e-09, -1.317552560850783e-07, 5.9336069471631187e-09, 1.3175525608507817e-07, -5.9336069471631121e-09]}
    - {mu0: 0, rank: 2, ndensity: 2, num_ms_combs: 7, mus: [0, 0], ns: [2, 4], ls: [6, 6], ms_combs: [0, 0, 1, -1, 2, -2, 3, -3, 4, -4, 5, -5, 6, -6], ctildes: [1.7345012370528311e-08, -2.5357491448386778e-08, -3.4690024741056634e-08, 5.0714982896773583e-08, 3.4690024741056621e-08, -5.0714982896773556e-08, -3.4690024741056628e-08, 5.0714982896773569e-08, 3.4690024741056628e-08, -5.0714982896773569e-08, -3.4690024741056621e-08, 5.0714982896773556e-08, 3.4690024741056601e-08, -5.071498289677353e-08]}
    - {mu0: 0, rank: 2, ndensity: 2, num_ms_combs: 1, mus: [0, 0], ns: [2, 5], ls: [0, 0], ms_combs: [0, 0], ctildes: [0.00011528698500501491, 0.00081641285155120528]}
    - {mu0: 0, rank: 2, ndensity: 2, num_ms_combs: 2, mus: [0, 0], ns: [2, 5], ls: [1, 1], ms_combs: [0, 0, 1, -1], ctildes: [-6.6114916976792637e-06, -1.1088832953398213e-07, 1.3222983395358526e-05, 2.2177665906796422e-07]}
    - {mu0: 0, rank: 2, ndensity: 2, num_ms_combs: 3, mus: [0, 0], ns: [2, 5], ls: [2, 2], ms_combs: [0, 0, 1, -1, 2, -2], ctildes: [-5.658485092735073e-07, -7.0172132573770032e-07, 1.1316970185470148e-06, 1.4034426514754006e-06, -1.131697018547015e-06, -1.4034426514754011e-06]}
    - {mu0: 0, rank: 2, ndensity: 2, num_ms_combs: 4, mus: [0, 0], ns: [2, 5], ls: [3, 3], ms_combs: [0, 0, 1, -1, 2, -2, 3, -3], ctildes: [4.0956070945953077e-05, 4.9700856784605636e-08, -8.1912141891906154e-05, -9.9401713569211273e-08, 8.1912141891906141e-05, 9.9401713569211259e-08, -8.1912141891906141e-05, -9.9401713569211259e-08]}
    - {mu0: 0, rank: 2, ndensity: 2, num_ms_combs: 5, mus: [0, 0], ns: [2, 5], ls: [4, 4], ms_combs: [0, 0, 1, -1, 2, -2, 3, -3, 4, -4], ctildes: [-1.8204749873056953e-05, 4.6598471117672504e-07, 3.6409499746113886e-05, -9.3196942235344966e-07, -3.6409499746113886e-05, 9.3196942235344966e-07, 3.6409499746113886e-05, -9.3196942235344966e-07, -3.6409499746113893e-05, 9.3196942235344988e-07]}
    - {mu0: 0, rank: 2, ndensity: 2, num_ms_combs: 6, mus: [0, 0], ns: [2, 5], ls: [5, 5], ms_combs: [0, 0, 1, -1, 2, -2, 3, -3, 4, -4, 5, -5], ctildes: [-2.9301729494509288e-07, -6.664273830881683e-07, 5.8603458989018577e-07, 1.3328547661763366e-06, -5.8603458989018587e-07, -1.3328547661763368e-06, 5.8603458989018598e-07, 1.332854766176337e-06, -5.8603458989018587e-07, -1.3328547661763368e-06, 5.8603458989018524e-07, 1.3328547661763353e-06]}
    - {mu0: 0, rank: 2, ndensity: 2, num_ms_combs: 7, mus: [0, 0], ns: [2, 5], ls: [6, 6], ms_combs: [0, 0, 1, -1, 2, -2, 3, -3, 4, -4, 5, -5, 6, -6], ctildes: [-1.7054590039537127e-05, -6.775661482336555e-09, 3.4109180079074267e-05, 1.3551322964673117e-08, -3.4109180079074253e-05, -1.355132296467311e-08, 3.410918007907426e-05, 1.3551322964673113e-08, -3.410918007907426e-05, -1.3551322964673113e-08, 3.4109180079074253e-05, 1.355132296467311e-08, -3.4109180079074233e-05, -1.3551322964673102e-08]}
    - {mu0: 0, rank: 2, ndensity: 2, num_ms_combs: 1, mus: [0, 0], ns: [3, 3], ls: [0, 0], ms_combs: [0, 0], ctildes: [0.0001364769417751589, 3.421244237124843e-08]}
    - {mu0: 0, rank: 2, ndensity: 2, num_ms_combs: 2, mus: [0, 0], ns: [3, 3], ls: [1, 1], ms_combs: [0, 0, 1, -1], ctildes: [-0.00013870749518324926, -4.4448068539976622e-07, 0.00027741499036649847, 8.8896137079953222e-07]}
    - {mu0: 0, rank: 2, ndensity: 2, num_ms_combs: 3, mus: [0, 0], ns: [3, 3], ls: [2, 2], ms_combs: [0, 0, 1, -1, 2, -2], ctildes: [0.00013980793724412827, -5.3237430141116507e-07, -0.00027961587448825659, 1.0647486028223304e-06, 0.00027961587448825664, -1.0647486028223306e-06]}
    - {mu0: 0, rank: 2, ndensity: 2, num_ms_combs: 4, mus: [0, 0], ns: [3, 3], ls: [3, 3], ms_combs: [0, 0, 1, -1, 2, -2, 3, -3], ctildes: [-3.328119277710644e-08, 2.7842037703129448e-08, 6.6562385554212881e-08, -5.5684075406258897e-08, -6.6562385554212868e-08, 5.5684075406258884e-08, 6.6562385554212868e-08, -5.5684075406258884e-08]}
    - {mu0: 0, rank: 2, ndensity: 2, num_ms_combs: 5, mus: [0, 0], ns: [3, 3], ls: [4, 4], ms_combs: [0, 0, 1, -1, 2, -2, 3, -3, 4, -4], ctildes: [-1.2174547840901796e-08, -1.6952127536421995e-06, 2.4349095681803583e-08, 3.3904255072843973e-06, -2.4349095681803583e-08, -3.3904255072843973e-06, 2.4349095681803583e-08, 3.3904255072843973e-06, -2.4349095681803586e-08, -3.3904255072843977e-06]}
    - {mu0: 0, rank: 2, ndensity: 2, num_ms_combs: 6, mus: [0, 0], ns: [3, 3], ls: [5, 5], ms_combs: [0, 0, 1, -1, 2, -2, 3, -3, 4, -4, 5, -5], ctildes: [-1.3658015611084686e-05, -6.0450287152632564e-09, 2.7316031222169372e-05, 1.2090057430526513e-08, -2.7316031222169375e-05, -1.2090057430526516e-08, 2.7316031222169382e-05, 1.2090057430526518e-08, -2.7316031222169375e-05, -1.2090057430526516e-08, 2.7316031222169345e-05, 1.2090057430526503e-08]}
    - {mu0: 0, rank: 2, ndensity: 2, num_ms_combs: 7, mus: [0, 0], ns: [3, 3], ls: [6, 6], ms_combs: [0, 0, 1, -1, 2, -2, 3, -3, 4, -4, 5, -5, 6, -6], ctildes: [-1.2269353780895677e-05, 2.7491652103061681e-07, 2.4538707561791365e-05, -5.4983304206123383e-07, -2.4538707561791355e-05, 5.4983304206123362e-07, 2.4538707561791362e-05, -5.4983304206123372e-07, -2.4538707561791362e-05, 5.4983304206123372e-07, 2.4538707561791355e-05, -5.4983304206123362e-07, -2.4538707561791341e-05, 5.498330420612333e-07]}
    - {mu0: 0, rank: 2, ndensity: 2, num_ms_combs: 1, mus: [0, 0], ns: [3, 4], ls: [0, 0], ms_combs: [0, 0], ctildes: [-0.00089302219099959054, -2.9462510706166932e-07]}
    - {mu0: 0, rank: 2, ndensity: 2, num_ms_combs: 2, mus: [0, 0], ns: [3, 4], ls: [1, 1], ms_combs: [0, 0, 1, -1], ctildes: [6.4805084695152598e-07, 3.45536605813575e-08, -1.2961016939030518e-06, -6.9107321162714987e-08]}
    - {mu0: 0, rank: 2, ndensity: 2, num_ms_combs: 3, mus: [0, 0], ns: [3, 4], ls: [2, 2], ms_combs: [0, 0, 1, -1, 2, -2], ctildes: [1.1417597243393029e-07, -6.5449979808091478e-09, -2.283519448678606e-07, 1.3089995961618297e-08, 2.2835194486786065e-07, -1.3089995961618301e-08]}
    - {mu0: 0, rank: 2, ndensity: 2, num_ms_combs: 4, mus: [0, 0], ns: [3, 4], ls: [3, 3], ms_combs: [0, 0, 1, -1, 2, -2, 3, -3], ctildes: [-3.3761732634354802e-08, -6.8390396995761027e-08, 6.7523465268709603e-08, 1.3678079399152205e-07, -6.7523465268709603e-08, -1.3678079399152203e-07, 6.7523465268709603e-08, 1.3678079399152203e-07]}
    - {mu0: 0, rank: 2, ndensity: 2, num_ms_combs: 5, mus: [0, 0], ns: [3, 4], ls: [4, 4], ms_combs: [0, 0, 1, -1, 2, -2, 3, -3, 4, -4], ctildes: [-2.3320322691362079e-05, 4.3896240384721023e-07, 4.6640645382724131e-05, -8.7792480769441993e-07, -4.6640645382724131e-05, 8.7792480769441993e-07, 4.6640645382724131e-05, -8.7792480769441993e-07, -4.6640645382724138e-05, 8.7792480769442015e-07]}
    - {mu0: 0, rank: 2, ndensity: 2, num_ms_combs: 6, mus: [0, 0], ns: [3, 4], ls: [5, 5], ms_combs: [0, 0, 1, -1, 2, -2, 3, -3, 4, -4, 5, -5], ctildes: [9.5831352180205852e-09, 1.2180199076989463e-08, -1.916627043604117e-08, -2.4360398153978925e-08, 1.9166270436041174e-08, 2.4360398153978929e-08, -1.9166270436041177e-08, -2.4360398153978932e-08, 1.9166270436041174e-08, 2.4360398153978929e-08, -1.9166270436041151e-08, -2.4360398153978902e-08]}
    - {mu0: 0, rank: 2, ndensity: 2, num_ms_combs: 7, mus: [0, 0], ns: [3, 4], ls: [6, 6], ms_combs: [0, 0, 1, -1, 2, -2, 3, -3, 4, -4, 5, -5, 6, -6], ctildes: [7.6874569282226749e-06, -8.4608806543545133e-09, -1.5374913856445357e-05, 1.6921761308709033e-08, 1.537491385644535e-05, -1.6921761308709027e-08, -1.5374913856445353e-05, 1.692176130870903e-08, 1.5374913856445353e-05, -1.692176130870903e-08, -1.537491385644535e-05, 1.6921761308709027e-08, 1.5374913856445343e-05, -1.6921761308709017e-08]}
    - {mu0: 0, rank: 2, ndensity: 2, num_ms_combs: 1, mus: [0, 0], ns: [3, 5], ls: [0, 0], ms_combs: [0, 0], ctildes: [-1.064197064594791e-05, 1.1991480618371227e-06]}
    - {mu0: 0, rank: 2, ndensity: 2, num_ms_combs: 2, mus: [0, 0], ns: [3, 5], ls: [1, 1], ms_combs: [0, 0, 1, -1], ctildes: [8.965526333035354e-06, 9.5186362190246292e-08, -1.7931052666070705e-05, -1.9037272438049256e-07]}
    - {mu0: 0, rank: 2, ndensity: 2, num_ms_combs: 3, mus: [0, 0], ns: [3, 5], ls: [2, 2], ms_combs: [0, 0, 1, -1, 2, -2], ctildes: [-4.4041227877064427e-05, -1.6018853554543065e-07, 8.8082455754128869e-05, 3.2037707109086136e-07, -8.8082455754128896e-05, -3.2037707109086141e-07]}
    - {mu0: 0, rank: 2, ndensity: 2, num_ms_combs: 4, mus: [0, 0], ns: [3, 5], ls: [3, 3], ms_combs: [0, 0, 1, -1, 2, -2, 3, -3], ctildes: [-9.8234973461978434e-05, 5.8695310665620199e-08, 0.00019646994692395687, -1.173906213312404e-07, -0.00019646994692395684, 1.1739062133124038e-07, 0.00019646994692395684, -1.1739062133124038e-07]}
    - {mu0: 0, rank: 2, ndensity: 2, num_ms_combs: 5, mus: [0, 0], ns: [3, 5], ls: [4, 4], ms_combs: [0, 0, 1, -1, 2, -2, 3, -3, 4, -4], ctildes: [-3.1345570463399492e-05, -9.7223402727816696e-07, 6.2691140926798958e-05, 1.9444680545563331e-06, -6.2691140926798958e-05, -1.9444680545563331e-06, 6.2691140926798958e-05, 1.9444680545563331e-06, -6.2691140926798958e-05, -1.9444680545563331e-06]}
    - {mu0: 0, rank: 2, ndensity: 2, num_ms_combs: 6, mus: [0, 0], ns: [3, 5], ls: [5, 5], ms_combs: [0, 0, 1, -1, 2, -2, 3, -3, 4, -4, 5, -5], ctildes: [-6.8673288755295375e-05, 3.5936344563196428e-09, 0.00013734657751059075, -7.1872689126392856e-09, -0.00013734657751059078, 7.1872689126392865e-09, 0.0001373465775105908, -7.1872689126392881e-09, -0.00013734657751059078, 7.1872689126392865e-09, 0.00013734657751059064, -7.187268912639279e-09]}
    - {mu0: 0, rank: 2, ndensity: 2, num_ms_combs: 7, mus: [0, 0], ns: [3, 5], ls: [6, 6], ms_combs: [0, 0, 1, -1, 2, -2, 3, -3, 4, -4, 5, -5, 6, -6], ctildes: [-8.3828311090794485e-08, 5.9274722646462428e-10, 1.6765662218158905e-07, -1.185494452929249e-09, -1.6765662218158897e-07, 1.1854944529292486e-09, 1.67656622181589e-07, -1.1854944529292488e-09, -1.67656622181589e-07, 1.1854944529292488e-09, 1.6765662218158897e-07, -1.1854944529292486e-09, -1.6765662218158886e-07, 1.1854944529292477e-09]}
    - {mu0: 0, rank: 2, ndensity: 2, num_ms_combs: 1, mus: [0, 0], ns: [4, 4], ls: [0, 0], ms_combs: [0, 0], ctildes: [8.1892085846646321e-06, -0.0084402983135698755]}
    - {mu0: 0, rank: 2, ndensity: 2, num_ms_combs: 2, mus: [0, 0], ns: [4, 4], ls: [1, 1], ms_combs: [0, 0, 1, -1], ctildes: [1.1412016309636486e-08, -3.926511241452024e-08, -2.2824032619272968e-08, 7.8530224829040466e-08]}
    - {mu0: 0, rank: 2, ndensity: 2, num_ms_combs: 3, mus: [0, 0], ns: [4, 4], ls: [2, 2], ms_combs: [0, 0, 1, -1, 2, -2], ctildes: [9.2795093004796603e-07, -0.0016510118296822098, -1.8559018600959323e-06, 0.0033020236593644201, 1.8559018600959327e-06, -0.003302023659364421]}
    - {mu0: 0, rank: 2, ndensity: 2, num_ms_combs: 4, mus: [0, 0], ns: [4, 4], ls: [3, 3], ms_combs: [0, 0, 1, -1, 2, -2, 3, -3], ctildes: [3.4057286772298837e-07, -1.0686677499405421e-05, -6.8114573544597674e-07, 2.1373354998810842e-05, 6.8114573544597663e-07, -2.1373354998810838e-05, -6.8114573544597663e-07, 2.1373354998810838e-05]}
    - {mu0: 0, rank: 2, ndensity: 2, num_ms_combs: 5, mus: [0, 0], ns: [4, 4], ls: [4, 4], ms_combs: [0, 0, 1, -1, 2, -2, 3, -3, 4, -4], ctildes: [-2.8755959140719557e-05, -2.3766036960626306e-08, 5.751191828143908e-05, 4.7532073921252586e-08, -5.751191828143908e-05, -4.7532073921252586e-08, 5.751191828143908e-05, 4.7532073921252586e-08, -5.7511918281439094e-05, -4.75320739212526e-08]}
    - {mu0: 0, rank: 2, ndensity: 2, num_ms_combs: 6, mus: [0, 0], ns: [4, 4], ls: [5, 5], ms_combs: [0, 0, 1, -1, 2, -2, 3, -3, 4, -4, 5, -5], ctildes: [6.258826071340596e-05, -8.5367251161971882e-10, -0.00012517652142681192, 1.7073450232394376e-09, 0.00012517652142681192, -1.7073450232394381e-09, -0.00012517652142681195, 1.7073450232394383e-09, 0.00012517652142681192, -1.7073450232394381e-09, -0.00012517652142681178, 1.7073450232394362e-09]}
    - {mu0: 0, rank: 2, ndensity: 2, num_ms_combs: 7, mus: [0, 0], ns: [4, 4], ls: [6, 6], ms_combs: [0, 0, 1, -1, 2, -2, 3, -3, 4, -4, 5, -5, 6, -6], ctildes: [-4.3799539876244958e-05, -2.071983872068986e-07, 8.7599079752489958e-05, 4.1439677441379736e-07, -8.7599079752489917e-05, -4.143967744137972e-07, 8.7599079752489944e-05, 4.143967744137973e-07, -8.7599079752489944e-05, -4.143967744137973e-07, 8.7599079752489917e-05, 4.143967744137972e-07, -8.7599079752489876e-05, -4.1439677441379698e-07]}
    - {mu0: 0, rank: 2, ndensity: 2, num_ms_combs: 1, mus: [0, 0], ns: [4, 5], ls: [0, 0], ms_combs: [0, 0], ctildes: [9.2718189884830111e-05, -5.7408075346620873e-07]}
    - {mu0: 0, rank: 2, ndensity: 2, num_ms_combs: 2, mus: [0, 0], ns: [4, 5], ls: [1, 1], ms_combs: [0, 0, 1, -1], ctildes: [0.00015141285649499929, -6.4417270426679057e-08, -0.00030282571298999853, 1.2883454085335809e-07]}
    - {mu0: 0, rank: 2, ndensity: 2, num_ms_combs: 3, mus: [0, 0], ns: [4, 5], ls: [2, 2], ms_combs: [0, 0, 1, -1, 2, -2], ctildes: [7.0453443505529663e-06, 1.198568363478726e-06, -1.4090688701105934e-05, -2.3971367269574525e-06, 1.4090688701105938e-05, 2.3971367269574529e-06]}
    - {mu0: 0, rank: 2, ndensity: 2, num_ms_combs: 4, mus: [0, 0], ns: [4, 5], ls: [3, 3], ms_combs: [0, 0, 1, -1, 2, -2, 3, -3], ctildes: [8.8102866787528978e-05, -3.2189699509311147e-09, -0.00017620573357505796, 6.4379399018622294e-09, 0.00017620573357505793, -6.4379399018622286e-09, -0.00017620573357505793, 6.4379399018622286e-09]}
    - {mu0: 0, rank: 2, ndensity: 2, num_ms_combs: 5, mus: [0, 0], ns: [4, 5], ls: [4, 4], ms_combs: [0, 0, 1, -1, 2, -2, 3, -3, 4, -4], ctildes: [2.3797196111762137e-05, -7.2786495848669014e-08, -4.7594392223524254e-05, 1.4557299169733795e-07, 4.7594392223524254e-05, -1.4557299169733795e-07, -4.7594392223524254e-05, 1.4557299169733795e-07, 4.7594392223524261e-05, -1.4557299169733798e-07]}
    - {mu0: 0, rank: 2, ndensity: 2, num_ms_combs: 6, mus: [0, 0], ns: [4, 5], ls: [5, 5], ms_combs: [0, 0, 1, -1, 2, -2, 3, -3, 4, -4, 5, -5], ctildes: [-0.00013573925479026626, -3.3329733799280978e-07, 0.00027147850958053252, 6.6659467598561956e-07, -0.00027147850958053257, -6.6659467598561977e-07, 0.00027147850958053257, 6.6659467598561988e-07, -0.00027147850958053257, -6.6659467598561977e-07, 0.00027147850958053225, 6.6659467598561903e-07]}
    - {mu0: 0, rank: 2, ndensity: 2, num_ms_combs: 7, mus: [0, 0], ns: [4, 5], ls: [6, 6], ms_combs: [0, 0, 1, -1, 2, -2, 3, -3, 4, -4, 5, -5, 6, -6], ctildes: [1.1155511711139242e-08, 1.1148373451762437e-07, -2.2311023422278493e-08, -2.2296746903524885e-07, 2.2311023422278483e-08, 2.2296746903524874e-07, -2.231102342227849e-08, -2.2296746903524879e-07, 2.231102342227849e-08, 2.2296746903524879e-07, -2.2311023422278483e-08, -2.2296746903524874e-07, 2.231102342227847e-08, 2.2296746903524861e-07]}
    - {mu0: 0, rank: 2, ndensity: 2, num_ms_combs: 1, mus: [0, 0], ns: [5, 5], ls: [0, 0], ms_combs: [0, 0], ctildes: [-1.4596415178995577e-05, -1.9695023111822681e-07]}
    - {mu0: 0, rank: 2, ndensity: 2, num_ms_combs: 2, mus: [0, 0], ns: [5, 5], ls: [1, 1], ms_combs: [0, 0, 1, -1], ctildes: [-3.2503697750390219e-05, -6.8422715923522775e-09, 6.5007395500780424e-05, 1.3684543184704552e-08]}
    - {mu0: 0, rank: 2, ndensity: 2, num_ms_combs: 3, mus: [0, 0], ns: [5, 5], ls: [2, 2], ms_combs: [0, 0, 1, -1, 2, -2], ctildes: [8.2500184410148138e-06, -7.4561074821281431e-08, -1.6500036882029631e-05, 1.4912214964256286e-07, 1.6500036882029634e-05, -1.4912214964256291e-07]}
    - {mu0: 0, rank: 2, ndensity: 2, num_ms_combs: 4, mus: [0, 0], ns: [5, 5], ls: [3, 3], ms_combs: [0, 0, 1, -1, 2, -2, 3, -3], ctildes: [-5.0928845879902219e-05, -1.4805584979587444e-08, 0.00010185769175980444, 2.9611169959174889e-08, -0.00010185769175980442, -2.9611169959174882e-08, 0.00010185769175980442, 2.9611169959174882e-08]}
    - {mu0: 0, rank: 2, ndensity: 2, num_ms_combs: 5, mus: [0, 0], ns: [5, 5], ls: [4, 4], ms_combs: [0, 0, 1, -1, 2, -2, 3, -3, 4, -4], ctildes: [2.2016486440962039e-05, 5.017935488474821e-08, -4.4032972881924057e-05, -1.0035870976949637e-07, 4.4032972881924057e-05, 1.0035870976949637e-07, -4.4032972881924057e-05, -1.0035870976949637e-07, 4.4032972881924064e-05, 1.0035870976949638e-07]}
    - {mu0: 0, rank: 2, ndensity: 2, num_ms_combs: 6, mus: [0, 0], ns: [5, 5], ls: [5, 5], ms_combs: [0, 0, 1, -1, 2, -2, 3, -3, 4, -4, 5, -5], ctildes: [9.1275640408245913e-06, 1.4783144753200721e-07, -1.8255128081649183e-05, -2.9566289506401442e-07, 1.8255128081649186e-05, 2.9566289506401447e-07, -1.8255128081649189e-05, -2.9566289506401452e-07, 1.8255128081649186e-05, 2.9566289506401447e-07, -1.8255128081649166e-05, -2.9566289506401415e-07]}
    - {mu0: 0, rank: 2, ndensity: 2, num_ms_combs: 7, mus: [0, 0], ns: [5, 5], ls: [6, 6], ms_combs: [0, 0, 1, -1, 2, -2, 3, -3, 4, -4, 5, -5, 6, -6], ctildes: [8.3375965379062728e-06, 3.7172576552662292e-08, -1.6675193075812552e-05, -7.434515310532461e-08, 1.6675193075812546e-05, 7.4345153105324584e-08, -1.6675193075812549e-05, -7.4345153105324597e-08, 1.6675193075812549e-05, 7.4345153105324597e-08, -1.6675193075812546e-05, -7.4345153105324584e-08, 1.6675193075812535e-05, 7.4345153105324544e-08]}
    - {mu0: 0, rank: 2, ndensity: 2, num_ms_combs: 1, mus: [0, 1], ns: [1, 1], ls: [0, 0], ms_combs: [0, 0], ctildes: [0.00026498099999097848, -7.0096612038035053e-08]}
    - {mu0: 0, rank: 2, ndensity: 2, num_ms_combs: 2, mus: [0, 1], ns: [1, 1], ls: [1, 1], ms_combs: [0, 0, 1, -1], ctildes: [-0.0012816812841798132, 5.4244174213903349e-09, 0.0025633625683596259, -1.0848834842780668e-08]}
